{"learner":{"attributes":{"best_iteration":"54","best_score":"0.03844551928361761"},"feature_names":[],"feature_types":[],"gradient_booster":{"model":{"gbtree_model_param":{"num_parallel_tree":"1","num_trees":"65"},"iteration_indptr":[0,1,2,3,4,5,6,7,8,9,10,11,12,13,14,15,16,17,18,19,20,21,22,23,24,25,26,27,28,29,30,31,32,33,34,35,36,37,38,39,40,41,42,43,44,45,46,47,48,49,50,51,52,53,54,55,56,57,58,59,60,61,62,63,64,65],"tree_info":[0,0,0,0,0,0,0,0,0,0,0,0,0,0,0,0,0,0,0,0,0,0,0,0,0,0,0,0,0,0,0,0,0,0,0,0,0,0,0,0,0,0,0,0,0,0,0,0,0,0,0,0,0,0,0,0,0,0,0,0,0,0,0,0,0],"trees":[{"base_weights":[-8.5381585E-1,-9.5018667E-1,4.5132294E-1,-9.846193E-1,-7.8816664E-1,1.965979E-1,1.6741655E0,-9.901216E-1,-3.0656436E-1,-9.056529E-1,-6.43047E-1,1.672762E0,6.525685E-2,1.7573324E-1,2.1172784E-1,-3.0574057E-1,-9.928582E-1,-7.15832E-1,7.5240456E-2,-2.7780578E-1,-9.26231E-1,-6.9409865E-1,4.534775E-2,3.758939E-2,2.0670824E-1,1.8486135E-1,-7.6334727E-1,8.6156346E-2,-5.954453E-2,3.758939E-2,-7.204013E-2,-1.0140113E0,-8.989142E-1,-8.54964E-2,-1.0977569E-2,-7.0006005E-2,3.758939E-2,-1.01944976E-1,-6.948368E-1,1.12859055E-1,-7.424782E-1,-6.261717E-1,1.347233E-1,2.7511868E-1,-8.124711E-2,-8.725153E-2,-2.6314324E-2,-1.0543281E-1,-9.534867E-2,-3.2271394E-3,-9.344316E-2,9.055212E-3,-7.5812034E-2,7.0763186E-2,-6.531179E-2,-4.2370055E-2,-9.157254E-2,-1.0977569E-2,-7.718524E-2,5.0053247E-3,1.8242918E-1],"categories":[],"categories_nodes":[],"categories_segments":[],"categories_sizes":[],"default_left":[0,0,0,0,0,0,0,0,0,0,0,0,0,0,0,0,0,0,0,0,0,0,0,0,0,0,0,0,0,0,0,0,0,0,0,0,0,0,0,0,0,0,0,0,0,0,0,0,0,0,0,0,0,0,0,0,0,0,0,0,0],"id":0,"left_children":[1,3,5,7,9,11,13,15,17,19,21,23,25,27,-1,29,31,33,-1,35,37,39,41,-1,-1,43,45,-1,-1,-1,-1,47,49,-1,-1,-1,-1,-1,51,53,55,57,-1,59,-1,-1,-1,-1,-1,-1,-1,-1,-1,-1,-1,-1,-1,-1,-1,-1,-1],"loss_changes":[9.486011E1,3.1260986E0,1.5962746E1,1.8338013E0,1.5933304E0,8.502942E0,5.526518E0,7.5982666E-1,3.1648924E0,6.2215805E-1,2.1590767E0,1.0581913E0,4.286749E0,2.16213E0,0E0,1.3183881E0,2.1148682E-1,3.1789303E-1,0E0,1.2537276E0,7.04113E-1,2.2865105E0,5.318301E0,0E0,0E0,3.5864959E0,6.917572E-2,0E0,0E0,0E0,0E0,1.0116577E-1,3.4378357E0,0E0,0E0,0E0,0E0,0E0,1.1593618E0,2.3115444E0,2.5590649E0,2.2065163E-1,0E0,1.2114095E1,0E0,0E0,0E0,0E0,0E0,0E0,0E0,0E0,0E0,0E0,0E0,0E0,0E0,0E0,0E0,0E0,0E0],"parents":[2147483647,0,0,1,1,2,2,3,3,4,4,5,5,6,6,7,7,8,8,9,9,10,10,11,11,12,12,13,13,15,15,16,16,17,17,19,19,20,20,21,21,22,22,25,25,26,26,31,31,32,32,38,38,39,39,40,40,41,41,43,43],"right_children":[2,4,6,8,10,12,14,16,18,20,22,24,26,28,-1,30,32,34,-1,36,38,40,42,-1,-1,44,46,-1,-1,-1,-1,48,50,-1,-1,-1,-1,-1,52,54,56,58,-1,60,-1,-1,-1,-1,-1,-1,-1,-1,-1,-1,-1,-1,-1,-1,-1,-1,-1],"split_conditions":[1.4891243E0,9.15842E-1,1.0574716E0,1.4382193E0,8.430193E-2,-1.5839355E0,1.6898721E0,-2.666611E0,8.51778E-1,-1.8337712E0,1.1392161E0,-6.5555227E-1,6.455008E-1,1.5960356E0,2.1172784E-1,-2.1734494E-1,1.029361E0,5.390537E-1,7.5240456E-2,-2.1069314E0,3.7885174E-1,1.7643473E-1,1.5321581E0,3.758939E-2,2.0670824E-1,1.4380257E0,4.1700625E-1,8.6156346E-2,-5.954453E-2,3.758939E-2,-7.204013E-2,7.8799635E-2,1.0548371E0,-8.54964E-2,-1.0977569E-2,-7.0006005E-2,3.758939E-2,-1.01944976E-1,4.1562757E-1,3.930808E-1,1.1981208E0,1.2406253E0,1.347233E-1,1.0422735E0,-8.124711E-2,-8.725153E-2,-2.6314324E-2,-1.0543281E-1,-9.534867E-2,-3.2271394E-3,-9.344316E-2,9.055212E-3,-7.5812034E-2,7.0763186E-2,-6.531179E-2,-4.2370055E-2,-9.157254E-2,-1.0977569E-2,-7.718524E-2,5.0053247E-3,1.8242918E-1],"split_indices":[2,4,4,2,5,3,2,4,3,2,2,5,4,2,0,3,5,4,0,2,2,5,4,0,0,5,3,0,0,0,0,2,5,0,0,0,0,0,2,3,4,2,0,5,0,0,0,0,0,0,0,0,0,0,0,0,0,0,0,0,0],"split_type":[0,0,0,0,0,0,0,0,0,0,0,0,0,0,0,0,0,0,0,0,0,0,0,0,0,0,0,0,0,0,0,0,0,0,0,0,0,0,0,0,0,0,0,0,0,0,0,0,0,0,0,0,0,0,0,0,0,0,0,0,0],"sum_hessian":[7.4978125E2,6.984779E2,5.13033E1,5.7186707E2,1.2661089E2,4.3419533E1,7.883764E0,5.668073E2,5.059729E0,6.707082E1,5.9540066E1,2.5886986E0,4.0830837E1,2.118026E0,5.7657375E0,2.7063665E0,5.6410095E2,3.8830478E0,1.1766812E0,2.5886986E0,6.4482124E1,5.542168E1,4.118384E0,1.059013E0,1.5296855E0,3.6359447E1,4.4713883E0,1.059013E0,1.059013E0,1.059013E0,1.6473536E0,4.524339E2,1.1166704E2,2.8240347E0,1.059013E0,1.5296855E0,1.059013E0,4.35372E1,2.0944925E1,3.059371E0,5.2362312E1,3.059371E0,1.059013E0,3.4006084E1,2.3533623E0,3.059371E0,1.4120173E0,2.6169388E2,1.9074002E2,4.4713883E0,1.07195656E2,1.5296855E0,1.941524E1,1.7650217E0,1.2943493E0,1.9650576E1,3.2711735E1,1.059013E0,2.0003579E0,3.059371E1,3.4123752E0],"tree_param":{"num_deleted":"0","num_feature":"6","num_nodes":"61","size_leaf_vector":"1"}},{"base_weights":[-7.991612E-1,-1.0894252E0,6.9438934E-1,-1.131171E0,-3.757467E-1,-3.4739852E-1,5.8939606E-1,-1.1345134E-1,-6.5367407E-1,-1.0539696E0,2.5230646E0,-8.065177E-1,4.0231338E-1,-9.3482964E-2,3.746545E-2,-1.11919224E-1,-4.3402235E-3,9.471676E-1,3.427601E-1,-1.1279329E-1,9.4096893E-1,1.621383E-1,2.9365188E-3,2.1473749E0,1.770583E-1,2.8512773E-1,1.263914E-2,-1.3851901E-2,1.0137846E-1],"categories":[],"categories_nodes":[],"categories_segments":[],"categories_sizes":[],"default_left":[0,0,0,0,0,0,0,0,0,0,0,0,0,0,0,0,0,0,0,0,0,0,0,0,0,0,0,0,0],"id":1,"left_children":[1,3,5,7,9,11,-1,-1,13,15,17,19,-1,-1,-1,-1,-1,21,-1,-1,23,-1,-1,25,27,-1,-1,-1,-1],"loss_changes":[3.0908688E2,1.7328064E1,6.3224896E2,1.5600586E-1,7.0343E1,1.9962222E2,0E0,0E0,2.1627538E0,1.836792E0,6.4780426E0,5.127207E1,0E0,0E0,0E0,0E0,0E0,2.3469133E0,0E0,0E0,1.2921302E1,0E0,0E0,7.4724064E0,2.7617297E0,0E0,0E0,0E0,0E0],"parents":[2147483647,0,0,1,1,2,2,3,3,4,4,5,5,8,8,9,9,10,10,11,11,17,17,20,20,23,23,24,24],"right_children":[2,4,6,8,10,12,-1,-1,14,16,18,20,-1,-1,-1,-1,-1,22,-1,-1,24,-1,-1,26,28,-1,-1,-1,-1],"split_conditions":[9.92686E-1,1.6536188E0,9.70884E-1,1.5960356E0,9.70884E-1,1.4624181E0,5.8939606E-1,-1.1345134E-1,8.468048E-1,1.7702394E0,-2.9933622E-1,9.917185E-1,4.0231338E-1,-9.3482964E-2,3.746545E-2,-1.11919224E-1,-4.3402235E-3,-8.418841E-1,3.427601E-1,-1.1279329E-1,1.1981208E0,1.621383E-1,2.9365188E-3,2.7260885E-1,6.4567584E-1,2.8512773E-1,1.263914E-2,-1.3851901E-2,1.0137846E-1],"split_indices":[0,2,1,2,1,2,0,0,1,4,0,4,0,0,0,0,0,0,0,0,4,0,0,2,2,0,0,0,0],"split_type":[0,0,0,0,0,0,0,0,0,0,0,0,0,0,0,0,0,0,0,0,0,0,0,0,0,0,0,0,0],"sum_hessian":[7.102187E2,5.9487775E2,1.15340935E2,5.614513E2,3.3426445E1,9.686601E1,1.847492E1,5.5618225E2,5.269074E0,2.7604376E1,5.8220677E0,8.839562E1,8.47039E0,4.209168E0,1.0599061E0,2.5829815E1,1.7745612E0,2.86965E0,2.952418E0,7.496234E1,1.3433281E1,1.2124181E0,1.6572318E0,4.5060587E0,8.927222E0,3.0373297E0,1.468729E0,7.0882783E0,1.8389435E0],"tree_param":{"num_deleted":"0","num_feature":"6","num_nodes":"29","size_leaf_vector":"1"}},{"base_weights":[-7.6242536E-1,-1.064238E0,6.0565144E-1,-1.1185994E-1,-7.51701E-1,-3.1150368E-1,3.6119825E-1,-8.564097E-1,-6.1816923E-2,-6.3194954E-1,1.0925746E0,-9.884292E-3,-8.6616105E-1,-2.309556E-1,9.002883E-2,7.490781E-1,-6.927256E-1,1.8895898E0,6.39966E-1,-8.8838494E-1,-5.1712215E-1,4.6034405E-1,-5.198329E-1,-1.0370401E-2,1.1281929E-1,3.1803066E-1,-7.6307744E-1,6.032201E-1,3.0316553E-1,1.6562214E0,2.214518E-1,-9.131228E-2,-5.5921506E-2,-8.744173E-2,1.3003475E-2,-2.1323495E-2,8.929486E-2,-7.004958E-2,3.4817994E-2,6.789171E-2,-5.9171118E-2,-4.327422E-2,-7.965841E-2,-3.677957E-2,1.4526643E-1,6.190132E-2,1.9912843E-1,1.06010556E-1,-2.0758307E-3],"categories":[],"categories_nodes":[],"categories_segments":[],"categories_sizes":[],"default_left":[0,0,0,0,0,0,0,0,0,0,0,0,0,0,0,0,0,0,0,0,0,0,0,0,0,0,0,0,0,0,0,0,0,0,0,0,0,0,0,0,0,0,0,0,0,0,0,0,0],"id":2,"left_children":[1,3,5,-1,7,9,-1,11,13,15,17,-1,19,21,-1,23,25,27,29,31,33,35,37,-1,-1,39,41,43,-1,45,47,-1,-1,-1,-1,-1,-1,-1,-1,-1,-1,-1,-1,-1,-1,-1,-1,-1,-1],"loss_changes":[2.7538107E2,8.42688E0,3.3446957E2,0E0,6.005577E0,4.2784332E1,0E0,4.5174408E-1,2.1818168E0,6.965456E0,5.1940765E0,0E0,9.666824E-2,2.4584043E0,0E0,1.3190446E0,5.5109367E0,6.8642197E0,5.091603E0,2.6828766E-2,1.6592342E0,1.2992494E0,1.5465555E0,0E0,0E0,2.2163062E0,4.2520905E-1,3.8592808E0,0E0,1.4709473E-2,2.1029756E0,0E0,0E0,0E0,0E0,0E0,0E0,0E0,0E0,0E0,0E0,0E0,0E0,0E0,0E0,0E0,0E0,0E0,0E0],"parents":[2147483647,0,0,1,1,2,2,4,4,5,5,7,7,8,8,9,9,10,10,12,12,13,13,15,15,16,16,17,17,18,18,19,19,20,20,21,21,22,22,25,25,26,26,27,27,29,29,30,30],"right_children":[2,4,6,-1,8,10,-1,12,14,16,18,-1,20,22,-1,24,26,28,30,32,34,36,38,-1,-1,40,42,44,-1,46,48,-1,-1,-1,-1,-1,-1,-1,-1,-1,-1,-1,-1,-1,-1,-1,-1,-1,-1],"split_conditions":[9.92686E-1,1.0494987E0,9.70884E-1,-1.1185994E-1,1.1101414E0,9.917185E-1,3.6119825E-1,-2.261606E0,2.148122E0,-1.8012488E0,1.1981208E0,-9.884292E-3,2.2706525E0,1.216498E0,9.002883E-2,1.2724165E0,-1.661789E0,1.1305418E0,1.0898957E0,8.166995E-1,4.3165177E-1,1.7293204E0,5.841693E-1,-1.0370401E-2,1.1281929E-1,7.860227E-1,-1.1478605E0,-1.00417905E-1,3.0316553E-1,1.0438248E0,-1.1689416E0,-9.131228E-2,-5.5921506E-2,-8.744173E-2,1.3003475E-2,-2.1323495E-2,8.929486E-2,-7.004958E-2,3.4817994E-2,6.789171E-2,-5.9171118E-2,-4.327422E-2,-7.965841E-2,-3.677957E-2,1.4526643E-1,6.190132E-2,1.9912843E-1,1.06010556E-1,-2.0758307E-3],"split_indices":[0,1,1,0,4,4,0,3,1,3,4,0,1,1,0,0,1,4,0,4,3,4,0,0,0,3,1,3,0,0,1,0,0,0,0,0,0,0,0,0,0,0,0,0,0,0,0,0,0],"split_type":[0,0,0,0,0,0,0,0,0,0,0,0,0,0,0,0,0,0,0,0,0,0,0,0,0,0,0,0,0,0,0,0,0,0,0,0,0,0,0,0,0,0,0,0,0,0,0,0,0],"sum_hessian":[6.643782E2,5.444817E2,1.19896484E2,4.6161157E2,8.2870094E1,9.25563E1,2.7340189E1,7.174018E1,1.1129908E1,7.58055E1,1.6750795E1,1.0532255E0,7.068696E1,1.0112136E1,1.0177721E0,2.718026E0,7.308747E1,4.9171376E0,1.1833657E1,6.500289E1,5.684066E0,2.8053095E0,7.3068266E0,1.0600357E0,1.6579902E0,4.5269847E0,6.8560486E1,3.0311608E0,1.8859767E0,2.5891588E0,9.244498E0,5.880923E1,6.1936636E0,3.4359252E0,2.2481406E0,1.2954081E0,1.5099014E0,6.207769E0,1.0990576E0,3.4228833E0,1.1041015E0,7.5952854E0,6.0965202E1,1.678944E0,1.3522168E0,1.3274398E0,1.261719E0,1.3148886E0,7.9296103E0],"tree_param":{"num_deleted":"0","num_feature":"6","num_nodes":"49","size_leaf_vector":"1"}},{"base_weights":[-7.501119E-1,-1.057542E0,5.1769304E-1,-1.0986987E0,-2.7479345E-1,-2.4972108E-1,2.7988955E-1,-1.1064364E-1,-7.5300866E-1,-1.03395715E-1,2.2171087E0,-7.1673167E-1,3.0063756E0,-9.563185E-1,6.7068286E-2,6.4809316E-1,2.9777834E-1,-1.0761838E0,7.7475655E-1,3.2732433E-1,5.572288E-2,-1.0288333E-1,-1.1302731E-2,-2.4999863E-2,1.3869779E-1,-1.1030652E-1,1.7385338E-2,1.4468659E0,3.1038964E-1,1.8848024E-1,-2.2095745E-2,-3.2077756E-2,1.2700737E-1],"categories":[],"categories_nodes":[],"categories_segments":[],"categories_sizes":[],"default_left":[0,0,0,0,0,0,0,0,0,0,0,0,0,0,0,0,0,0,0,0,0,0,0,0,0,0,0,0,0,0,0,0,0],"id":3,"left_children":[1,3,5,7,9,11,-1,-1,13,-1,15,17,19,21,-1,23,-1,25,27,-1,-1,-1,-1,-1,-1,-1,-1,29,31,-1,-1,-1,-1],"loss_changes":[2.4403232E2,1.5906067E1,2.1531029E2,4.44458E-1,5.235885E1,1.4304115E2,0E0,0E0,4.5743732E0,0E0,5.8256187E0,4.470747E1,5.8977356E0,6.359987E-1,0E0,2.6028633E0,0E0,2.4217072E0,4.692506E0,0E0,0E0,0E0,0E0,0E0,0E0,0E0,0E0,5.1335096E0,7.0798826E0,0E0,0E0,0E0,0E0],"parents":[2147483647,0,0,1,1,2,2,3,3,4,4,5,5,8,8,10,10,11,11,12,12,13,13,15,15,17,17,18,18,27,27,28,28],"right_children":[2,4,6,8,10,12,-1,-1,14,-1,16,18,20,22,-1,24,-1,26,28,-1,-1,-1,-1,-1,-1,-1,-1,30,32,-1,-1,-1,-1],"split_conditions":[9.92686E-1,1.6898721E0,9.889511E-1,1.4891243E0,9.356798E-1,1.4891243E0,2.7988955E-1,-1.1064364E-1,1.1934608E0,-1.03395715E-1,-5.515875E-1,1.0036238E0,2.1542225E0,1.3577168E0,6.7068286E-2,1.5124752E-1,2.9777834E-1,9.575565E-1,1.1981208E0,3.2732433E-1,5.572288E-2,-1.0288333E-1,-1.1302731E-2,-2.4999863E-2,1.3869779E-1,-1.1030652E-1,1.7385338E-2,1.5954685E0,3.3304802E-1,1.8848024E-1,-2.2095745E-2,-3.2077756E-2,1.2700737E-1],"split_indices":[0,2,1,2,1,2,0,0,1,0,0,4,0,4,0,4,0,1,4,0,0,0,0,0,0,0,0,0,2,0,0,0,0],"split_type":[0,0,0,0,0,0,0,0,0,0,0,0,0,0,0,0,0,0,0,0,0,0,0,0,0,0,0,0,0,0,0,0,0],"sum_hessian":[6.237022E2,5.0211108E2,1.21591125E2,4.7664557E2,2.546552E1,9.164992E1,2.9941208E1,4.640578E2,1.2587773E1,1.996746E1,5.4980593E0,8.08358E1,1.08141165E1,1.1302068E1,1.2857057E0,2.3998911E0,3.0981684E0,6.5361885E1,1.5473916E1,9.4481325E0,1.3659846E0,1.02045555E1,1.0975126E0,1.3818945E0,1.0179965E0,6.4101006E1,1.260883E0,5.4581656E0,1.001575E1,4.219986E0,1.2381797E0,6.443633E0,3.5721169E0],"tree_param":{"num_deleted":"0","num_feature":"6","num_nodes":"33","size_leaf_vector":"1"}},{"base_weights":[-7.200144E-1,-1.0307858E0,4.3526968E-1,-1.0915172E-1,-2.4663548E-1,-2.4986027E-1,2.1088393E0,-1.0395889E0,2.1522312E-1,-7.1860534E-1,2.333146E0,8.339368E-1,2.167033E0,-1.0749792E-1,-1.423688E-2,-7.7195096E-1,-1.2448425E-2,2.474798E0,7.624723E-2,1.6438052E-2,1.1072198E-1,2.2341304E0,8.2757264E-1,-5.584168E-1,-8.6718524E-1,8.062466E-2,-4.6136495E-1,2.590488E-1,6.9814116E-2,2.3512046E0,1.3128057E0,-3.0919129E-2,1.5679319E-1,-7.743328E-2,-2.2609113E-2,-1.00665666E-1,-7.474055E-2,-8.0316305E-2,3.3461016E-2,8.14752E-2,2.4051248E-1,1.7514814E-1,-3.060411E-2],"categories":[],"categories_nodes":[],"categories_segments":[],"categories_sizes":[],"default_left":[0,0,0,0,0,0,0,0,0,0,0,0,0,0,0,0,0,0,0,0,0,0,0,0,0,0,0,0,0,0,0,0,0,0,0,0,0,0,0,0,0,0,0],"id":4,"left_children":[1,3,5,-1,7,9,11,13,-1,15,17,19,21,-1,-1,23,25,27,-1,-1,-1,29,31,33,35,-1,37,-1,-1,39,41,-1,-1,-1,-1,-1,-1,-1,-1,-1,-1,-1,-1],"loss_changes":[2.1113577E2,2.1766998E1,1.4396458E2,0E0,6.796468E1,1.10227295E2,8.9656067E-1,6.9296646E-1,0E0,2.8777504E0,1.2292709E0,4.0652537E-1,1.2271729E0,0E0,0E0,9.646301E-1,2.724122E0,7.40654E-1,0E0,0E0,0E0,3.6550903E-1,3.1956923E0,1.603272E0,4.0550232E-2,0E0,1.5663466E0,0E0,0E0,2.8825378E-1,4.7065125E0,0E0,0E0,0E0,0E0,0E0,0E0,0E0,0E0,0E0,0E0,0E0,0E0],"parents":[2147483647,0,0,1,1,2,2,4,4,5,5,6,6,7,7,9,9,10,10,11,11,12,12,15,15,16,16,17,17,21,21,22,22,23,23,24,24,26,26,29,29,30,30],"right_children":[2,4,6,-1,8,10,12,14,-1,16,18,20,22,-1,-1,24,26,28,-1,-1,-1,30,32,34,36,-1,38,-1,-1,40,42,-1,-1,-1,-1,-1,-1,-1,-1,-1,-1,-1,-1],"split_conditions":[9.92686E-1,1.5637474E0,9.70884E-1,-1.0915172E-1,9.356798E-1,1.4624181E0,1.0283912E0,1.5231161E0,2.1522312E-1,1.3110495E0,2.1542225E0,1.1934608E0,1.386356E0,-1.0749792E-1,-1.423688E-2,-4.6853402E-1,1.5231161E0,8.85911E-1,7.624723E-2,1.6438052E-2,1.1072198E-1,1.9309862E0,1.579015E0,-8.7222695E-1,-3.4787962E-1,8.062466E-2,3.7885174E-1,2.590488E-1,6.9814116E-2,1.0084319E0,5.7872856E-1,-3.0919129E-2,1.5679319E-1,-7.743328E-2,-2.2609113E-2,-1.00665666E-1,-7.474055E-2,-8.0316305E-2,3.3461016E-2,8.14752E-2,2.4051248E-1,1.7514814E-1,-3.060411E-2],"split_indices":[0,2,1,0,1,2,0,3,0,3,0,1,3,0,0,3,3,3,0,0,0,0,3,3,1,0,2,0,0,1,3,0,0,0,0,0,0,0,0,0,0,0,0],"split_type":[0,0,0,0,0,0,0,0,0,0,0,0,0,0,0,0,0,0,0,0,0,0,0,0,0,0,0,0,0,0,0,0,0,0,0,0,0,0,0,0,0,0,0],"sum_hessian":[5.858242E2,4.6172733E2,1.2409689E2,4.2817386E2,3.3553467E1,8.8654144E1,3.5442745E1,2.5643543E1,7.909926E0,7.564791E1,1.3006235E1,2.2163963E0,3.322635E1,2.4479828E1,1.1637138E0,7.0247955E1,5.399955E0,1.1402286E1,1.6039494E0,1.1066222E0,1.1097742E0,3.1005272E1,2.2210758E0,2.3783726E1,4.646423E1,1.6304669E0,3.7694879E0,1.0275134E1,1.1271511E0,2.6132578E1,4.8726935E0,1.1057142E0,1.1153616E0,1.3610669E1,1.0173057E1,1.8046583E1,2.8417646E1,2.6307797E0,1.1387082E0,1.4322062E0,2.470037E1,3.7693436E0,1.10335E0],"tree_param":{"num_deleted":"0","num_feature":"6","num_nodes":"43","size_leaf_vector":"1"}},{"base_weights":[-6.9590455E-1,-1.0133194E0,4.189417E-1,-1.0259831E-1,-7.0341694E-1,1.6028836E-1,1.344818E0,-8.7148935E-1,2.6635194E-1,3.4192316E-2,6.7754984E-1,9.9631166E-1,1.913522E-1,-9.177554E-1,-6.9661476E-3,-6.6291E-2,1.19504E-1,1.4340605E-1,-4.63819E-1,3.9028427E-1,1.2007788E0,1.7040293E0,6.8825E-1,-1.7454019E-2,-9.6417814E-1,2.5071934E-1,-3.2627735E-1,5.031669E-1,-7.5493896E-1,5.550849E-1,-4.077989E-2,3.309151E-2,1.3082992E-1,1.9684722E-1,5.247652E-2,-1.3788673E-1,8.979594E-1,-2.4819167E-2,-1.0198244E-1,1.7020173E-2,8.666962E-2,4.5691278E-2,-5.15407E-2,7.398303E-2,3.6799535E-3,-8.7866694E-2,5.1663774E-3,-1.1429683E-3,7.581185E-2,4.625338E-2,-6.689703E-2,4.153375E-2,1.365221E-1],"categories":[],"categories_nodes":[],"categories_segments":[],"categories_sizes":[],"default_left":[0,0,0,0,0,0,0,0,0,0,0,0,0,0,0,0,0,0,0,0,0,0,0,0,0,0,0,0,0,0,0,0,0,0,0,0,0,0,0,0,0,0,0,0,0,0,0,0,0,0,0,0,0],"id":5,"left_children":[1,3,5,-1,7,9,11,13,15,17,19,21,-1,23,-1,-1,-1,25,27,29,31,33,35,-1,37,39,41,43,45,47,-1,-1,-1,-1,-1,49,51,-1,-1,-1,-1,-1,-1,-1,-1,-1,-1,-1,-1,-1,-1,-1,-1],"loss_changes":[1.9493185E2,9.585266E-1,2.9126118E1,0E0,3.4901495E0,6.2973223E0,3.3692436E0,5.767565E-1,4.0012617E0,4.36133E0,2.378087E0,2.8803596E0,0E0,3.9223766E-1,0E0,0E0,0E0,3.3845E0,4.4443884E0,2.0293467E0,1.4986134E-1,5.139532E-1,2.6584678E0,0E0,3.473072E-1,2.5259671E0,2.1050248E0,4.0775436E-1,1.192821E0,1.3642662E0,0E0,0E0,0E0,0E0,0E0,1.5303208E0,2.0943031E0,0E0,0E0,0E0,0E0,0E0,0E0,0E0,0E0,0E0,0E0,0E0,0E0,0E0,0E0,0E0,0E0],"parents":[2147483647,0,0,1,1,2,2,4,4,5,5,6,6,7,7,8,8,9,9,10,10,11,11,13,13,17,17,18,18,19,19,20,20,21,21,22,22,24,24,25,25,26,26,27,27,28,28,29,29,35,35,36,36],"right_children":[2,4,6,-1,8,10,12,14,16,18,20,22,-1,24,-1,-1,-1,26,28,30,32,34,36,-1,38,40,42,44,46,48,-1,-1,-1,-1,-1,50,52,-1,-1,-1,-1,-1,-1,-1,-1,-1,-1,-1,-1,-1,-1,-1,-1],"split_conditions":[9.92686E-1,1.7293204E0,9.4642353E-1,-1.0259831E-1,1.1525537E0,1.029361E0,7.334193E-1,7.736436E-1,-1.9881025E-1,8.6737674E-1,6.179339E-1,1.1094327E0,1.913522E-1,-1.2882673E0,-6.9661476E-3,-6.6291E-2,1.19504E-1,4.8040313E-1,1.1263751E0,2.0608962E-1,-8.234708E-1,1.7293204E0,1.3443242E0,-1.7454019E-2,1.7702394E0,3.2580152E-1,-1.1301775E0,-5.836608E-1,1.8089346E0,-9.1967887E-1,-4.077989E-2,3.309151E-2,1.3082992E-1,1.9684722E-1,5.247652E-2,1.1981208E0,8.448695E-2,-2.4819167E-2,-1.0198244E-1,1.7020173E-2,8.666962E-2,4.5691278E-2,-5.15407E-2,7.398303E-2,3.6799535E-3,-8.7866694E-2,5.1663774E-3,-1.1429683E-3,7.581185E-2,4.625338E-2,-6.689703E-2,4.153375E-2,1.365221E-1],"split_indices":[0,4,4,0,5,5,5,0,3,3,3,0,0,3,0,0,0,5,0,3,4,4,0,0,4,5,4,5,3,3,0,0,0,0,0,4,3,0,0,0,0,0,0,0,0,0,0,0,0,0,0,0,0],"split_type":[0,0,0,0,0,0,0,0,0,0,0,0,0,0,0,0,0,0,0,0,0,0,0,0,0,0,0,0,0,0,0,0,0,0,0,0,0,0,0,0,0,0,0,0,0,0,0,0,0,0,0,0,0],"sum_hessian":[5.486595E2,4.271375E2,1.2152193E2,4.081486E2,1.898895E1,9.590341E1,2.5618515E1,1.6270435E1,2.718515E0,7.79638E1,1.7939615E1,1.7590694E1,8.02782E0,1.5246142E1,1.0242932E0,1.5018867E0,1.2166281E0,6.452544E1,1.3438366E1,1.270834E1,5.2312765E0,3.9605567E0,1.3630138E1,1.1761475E0,1.4069995E1,5.29041E1,1.1621336E1,2.941032E0,1.04973345E1,1.0785632E1,1.9227078E0,1.0240633E0,4.2072134E0,2.68845E0,1.2721066E0,2.8287895E0,1.0801349E1,1.4084165E0,1.2661579E1,4.791693E1,4.987166E0,1.985104E0,9.636231E0,1.5620065E0,1.3790255E0,9.023796E0,1.4735384E0,3.0946066E0,7.6910253E0,1.3883054E0,1.4404839E0,6.242507E0,4.5588417E0],"tree_param":{"num_deleted":"0","num_feature":"6","num_nodes":"53","size_leaf_vector":"1"}},{"base_weights":[-6.866525E-1,-1.0065606E0,3.4997627E-1,-1.0717344E-1,-6.913654E-1,-2.6809925E-1,1.7315834E0,-8.0164194E-1,-7.4849157E-3,-5.325119E-1,9.422312E-1,4.2228573E-3,1.7845699E0,-8.483306E-1,-4.5697013E-1,7.721456E-2,-2.3464903E-1,6.962029E-2,-5.716019E-1,6.5016097E-1,2.4044824E-1,5.654034E-2,1.8245355E0,-3.0513155E-1,-8.884823E-1,-7.4629754E-1,6.299929E-2,1.8585543E-1,-8.1791036E-2,-1.4947528E-1,-6.7326164E-1,1.7084068E0,2.0423621E-1,1.8715066E0,7.8695595E-1,2.7552E-2,-5.5796813E-2,-1.904567E-2,-9.038587E-2,-8.525866E-2,-2.3221942E-2,7.150148E-2,-4.2554025E-2,-6.1038513E-2,5.196422E-2,8.264119E-2,-3.686283E-2,-1.107004E-2,-8.0041215E-2,2.3899852E-1,5.6497037E-2,6.2524915E-2,-2.284924E-2,2.0003818E-1,1.02031246E-1,-2.5377989E-2,1.4085978E-1],"categories":[],"categories_nodes":[],"categories_segments":[],"categories_sizes":[],"default_left":[0,0,0,0,0,0,0,0,0,0,0,0,0,0,0,0,0,0,0,0,0,0,0,0,0,0,0,0,0,0,0,0,0,0,0,0,0,0,0,0,0,0,0,0,0,0,0,0,0,0,0,0,0,0,0,0,0],"id":6,"left_children":[1,3,5,-1,7,9,11,13,15,17,19,-1,21,23,25,-1,27,-1,29,31,-1,-1,33,35,37,39,41,43,-1,45,47,49,51,53,55,-1,-1,-1,-1,-1,-1,-1,-1,-1,-1,-1,-1,-1,-1,-1,-1,-1,-1,-1,-1,-1,-1],"loss_changes":[1.7038991E2,7.3133545E0,1.04354095E2,0E0,5.272972E0,2.767915E1,3.3026505E0,5.8219147E-1,2.081392E0,3.776184E0,5.0936584E0,0E0,7.500458E-1,8.610954E-1,1.454786E0,0E0,2.3778815E0,0E0,2.8481789E0,6.428816E0,0E0,0E0,2.3083496E-1,9.018856E-1,3.4105682E-1,1.347785E-1,1.6636297E0,1.9353002E0,0E0,3.4318542E0,3.8522282E0,1.8623104E0,2.1907141E0,1.5478973E0,2.4533308E0,0E0,0E0,0E0,0E0,0E0,0E0,0E0,0E0,0E0,0E0,0E0,0E0,0E0,0E0,0E0,0E0,0E0,0E0,0E0,0E0,0E0,0E0],"parents":[2147483647,0,0,1,1,2,2,4,4,5,5,6,6,7,7,8,8,9,9,10,10,12,12,13,13,14,14,16,16,18,18,19,19,22,22,23,23,24,24,25,25,26,26,27,27,29,29,30,30,31,31,32,32,33,33,34,34],"right_children":[2,4,6,-1,8,10,12,14,16,18,20,-1,22,24,26,-1,28,-1,30,32,-1,-1,34,36,38,40,42,44,-1,46,48,50,52,54,56,-1,-1,-1,-1,-1,-1,-1,-1,-1,-1,-1,-1,-1,-1,-1,-1,-1,-1,-1,-1,-1,-1],"split_conditions":[9.92686E-1,9.889511E-1,9.889511E-1,-1.0717344E-1,1.1101414E0,1.1305418E0,-2.0231192E0,1.9760964E0,1.184913E0,-2.1996546E0,1.2949224E0,4.2228573E-3,1.0283912E0,-1.4610041E0,4.3165177E-1,7.721456E-2,1.459248E0,6.962029E-2,1.1263751E0,-7.3912036E-1,2.4044824E-1,5.654034E-2,1.386356E0,1.1135511E0,1.0084319E0,4.1744956E-1,8.087405E-1,-5.865611E-1,-8.1791036E-2,-1.0975116E0,-8.89645E-1,1.4537077E0,1.3882524E0,1.9309862E0,1.579015E0,2.7552E-2,-5.5796813E-2,-1.904567E-2,-9.038587E-2,-8.525866E-2,-2.3221942E-2,7.150148E-2,-4.2554025E-2,-6.1038513E-2,5.196422E-2,8.264119E-2,-3.686283E-2,-1.107004E-2,-8.0041215E-2,2.3899852E-1,5.6497037E-2,6.2524915E-2,-2.284924E-2,2.0003818E-1,1.02031246E-1,-2.5377989E-2,1.4085978E-1],"split_indices":[0,1,1,0,4,4,3,1,4,1,3,0,0,3,3,0,1,0,0,3,0,0,3,1,1,4,3,3,0,1,3,4,0,0,3,0,0,0,0,0,0,0,0,0,0,0,0,0,0,0,0,0,0,0,0,0,0],"split_type":[0,0,0,0,0,0,0,0,0,0,0,0,0,0,0,0,0,0,0,0,0,0,0,0,0,0,0,0,0,0,0,0,0,0,0,0,0,0,0,0,0,0,0,0,0,0,0,0,0,0,0,0,0,0,0,0,0],"sum_hessian":[5.117393E2,3.910795E2,1.20659805E2,3.2208148E2,6.899799E1,8.3922295E1,3.673751E1,5.9268658E1,9.729335E0,6.9335144E1,1.4587149E1,1.1718751E0,3.5565636E1,5.0911064E1,8.3575945E0,1.6539365E0,8.075398E0,1.6194932E0,6.771565E1,1.336271E1,1.2244388E0,1.6096591E0,3.395598E1,4.096073E0,4.681499E1,5.090055E0,3.2675397E0,5.088312E0,2.9870865E0,1.3622134E1,5.4093513E1,3.1221733E0,1.0240537E1,3.1716455E1,2.2395217E0,1.2153186E0,2.8807545E0,1.2975562E0,4.5517433E1,3.6723049E0,1.4177501E0,1.2010355E0,2.0665042E0,1.258211E0,3.830101E0,1.9899521E0,1.1632182E1,1.0317159E1,4.3776356E1,1.2731174E0,1.8490558E0,4.9650307E0,5.2755065E0,2.6373312E1,5.3431425E0,1.05875E0,1.1807717E0],"tree_param":{"num_deleted":"0","num_feature":"6","num_nodes":"57","size_leaf_vector":"1"}},{"base_weights":[-6.4503217E-1,-9.8589134E-1,3.5454595E-1,-1.0620586E-1,-6.2076133E-1,-2.4290931E-1,1.5698588E0,-6.7222124E-1,-3.8423002E-1,-3.3100846E-1,2.5352296E-1,3.9927685E-3,1.6140538E-1,-5.07117E-1,-8.3822304E-1,2.841002E-1,-6.147447E-1,6.2546164E-1,-3.7181503E-1,9.743676E-1,1.6839294E-2,-5.556037E-1,3.8547862E-2,-9.04162E-1,-6.2312507E-3,-3.753002E-2,9.6988924E-2,2.1790177E-2,-7.5834584E-1,2.2176268E-2,7.523998E-2,1.5972393E-2,-4.6791402E-1,1.303971E-1,2.3279492E-2,4.813056E-1,-2.4317539E-1,7.0211636E-3,-6.430786E-2,-9.793257E-2,-1.812824E-2,-8.336898E-2,-6.8894625E-3,-5.991686E-2,3.2222506E-2,-5.572634E-2,5.2949428E-3,8.6364515E-2,-2.18577E-2,-6.4285986E-2,1.9252464E-2],"categories":[],"categories_nodes":[],"categories_segments":[],"categories_sizes":[],"default_left":[0,0,0,0,0,0,0,0,0,0,0,0,0,0,0,0,0,0,0,0,0,0,0,0,0,0,0,0,0,0,0,0,0,0,0,0,0,0,0,0,0,0,0,0,0,0,0,0,0,0,0],"id":7,"left_children":[1,3,5,-1,7,9,11,13,15,17,19,-1,-1,21,23,25,27,29,31,33,35,37,-1,39,-1,-1,-1,-1,41,-1,-1,43,45,-1,-1,47,49,-1,-1,-1,-1,-1,-1,-1,-1,-1,-1,-1,-1,-1,-1],"loss_changes":[1.6500015E2,9.370148E0,9.0141815E1,0E0,5.286331E-1,3.7464695E0,2.6994858E0,9.9366E-1,2.3139756E0,3.0253954E0,2.233612E0,0E0,0E0,1.4469304E0,1.1859131E0,2.2837045E0,1.4375968E0,2.292037E-3,2.5883284E0,4.8892355E-1,1.438932E0,1.5465345E0,0E0,1.0343742E0,0E0,0E0,0E0,0E0,4.2561436E-1,0E0,0E0,2.9663186E0,2.6139984E0,0E0,0E0,1.3297994E0,1.4614688E0,0E0,0E0,0E0,0E0,0E0,0E0,0E0,0E0,0E0,0E0,0E0,0E0,0E0,0E0],"parents":[2147483647,0,0,1,1,2,2,4,4,5,5,6,6,7,7,8,8,9,9,10,10,13,13,14,14,15,15,16,16,17,17,18,18,19,19,20,20,21,21,23,23,28,28,31,31,32,32,35,35,36,36],"right_children":[2,4,6,-1,8,10,12,14,16,18,20,-1,-1,22,24,26,28,30,32,34,36,38,-1,40,-1,-1,-1,-1,42,-1,-1,44,46,-1,-1,48,50,-1,-1,-1,-1,-1,-1,-1,-1,-1,-1,-1,-1,-1,-1],"split_conditions":[9.92686E-1,1.0084319E0,9.70884E-1,-1.0620586E-1,1.0422735E0,1.2035059E0,-2.0231192E0,1.459248E0,1.2035059E0,-1.9200864E0,1.2802832E0,3.9927685E-3,1.6140538E-1,8.372432E-1,1.579015E0,1.7185513E0,-1.2522519E0,1.6701381E0,1.1094327E0,-3.9177877E-1,1.2523919E0,-1.2882673E0,3.8547862E-2,2.403217E0,-6.2312507E-3,-3.753002E-2,9.6988924E-2,2.1790177E-2,1.2754445E0,2.2176268E-2,7.523998E-2,-6.037224E-1,5.443794E-1,1.303971E-1,2.3279492E-2,1.4809512E0,1.4191804E0,7.0211636E-3,-6.430786E-2,-9.793257E-2,-1.812824E-2,-8.336898E-2,-6.8894625E-3,-5.991686E-2,3.2222506E-2,-5.572634E-2,5.2949428E-3,8.6364515E-2,-2.18577E-2,-6.4285986E-2,1.9252464E-2],"split_indices":[0,1,1,0,5,5,3,1,5,3,5,0,0,0,3,1,0,0,0,3,0,3,0,1,0,0,0,0,3,0,0,3,1,0,0,5,5,0,0,0,0,0,0,0,0,0,0,0,0,0,0],"split_type":[0,0,0,0,0,0,0,0,0,0,0,0,0,0,0,0,0,0,0,0,0,0,0,0,0,0,0,0,0,0,0,0,0,0,0,0,0,0,0,0,0,0,0,0,0,0,0,0,0,0,0],"sum_hessian":[4.822497E2,3.5962885E2,1.2262084E2,2.9597815E2,6.36507E1,8.274367E1,3.987717E1,5.0764374E1,1.2886325E1,7.055575E1,1.21879225E1,1.1730288E0,3.870414E1,2.748393E1,2.3280443E1,3.2451668E0,9.641158E0,2.3007474E0,6.8255E1,2.2422297E0,9.945693E0,2.6425983E1,1.0579456E0,2.1304628E1,1.9758159E0,1.8852278E0,1.3599389E0,1.3420577E0,8.299101E0,1.2075174E0,1.0932301E0,1.3720912E1,5.453409E1,1.0272617E0,1.2149678E0,3.2640405E0,6.6816525E0,3.2649739E0,2.316101E1,1.8976707E1,2.3279202E0,7.292915E0,1.0061855E0,4.242649E0,9.478264E0,4.6489376E1,8.044711E0,1.9595633E0,1.3044773E0,3.2368767E0,3.444776E0],"tree_param":{"num_deleted":"0","num_feature":"6","num_nodes":"51","size_leaf_vector":"1"}},{"base_weights":[-6.163584E-1,-9.6797854E-1,3.2061848E-1,-1.0555261E-1,9.4811834E-2,-2.4110472E-1,1.4369704E0,-8.601104E-1,2.1508136E0,-6.7833775E-1,1.8848015E0,1.2038379E0,1.6423033E0,-1.0147281E-1,5.3008642E-2,5.582292E-2,2.387451E-1,-1.0735271E-1,5.920763E-1,-2.5548218E-2,2.0679965E0,1.3039597E0,3.8410646E-1,4.374754E-2,1.6975813E-1,1.1587213E0,-1.7804755E-1,2.2174935E-1,4.8058372E-2,3.026457E-2,1.388385E0,-1.5436803E-2,6.874081E-2,1.358082E-1,-1.8149978E-2,-7.168036E-2,5.185947E-2,1.471761E-1,3.5885163E-2],"categories":[],"categories_nodes":[],"categories_segments":[],"categories_sizes":[],"default_left":[0,0,0,0,0,0,0,0,0,0,0,0,0,0,0,0,0,0,0,0,0,0,0,0,0,0,0,0,0,0,0,0,0,0,0,0,0,0,0],"id":8,"left_children":[1,3,5,-1,7,9,11,13,15,17,19,21,23,-1,-1,-1,-1,-1,25,-1,27,29,31,-1,-1,33,35,-1,-1,-1,37,-1,-1,-1,-1,-1,-1,-1,-1],"loss_changes":[1.5005687E2,3.0874084E1,7.8591484E1,0E0,5.307143E1,7.923233E1,2.922821E-2,4.5207434E0,1.8931885E0,3.592707E1,6.2413635E0,1.4174156E0,5.58651E-1,0E0,0E0,0E0,0E0,0E0,7.7657766E0,0E0,2.145607E0,1.3052979E0,7.531224E-1,0E0,0E0,2.9485683E0,3.4530427E0,0E0,0E0,0E0,1.063755E0,0E0,0E0,0E0,0E0,0E0,0E0,0E0,0E0],"parents":[2147483647,0,0,1,1,2,2,4,4,5,5,6,6,7,7,8,8,9,9,10,10,11,11,12,12,18,18,20,20,21,21,22,22,25,25,26,26,30,30],"right_children":[2,4,6,-1,8,10,12,14,16,18,20,22,24,-1,-1,-1,-1,-1,26,-1,28,30,32,-1,-1,34,36,-1,-1,-1,38,-1,-1,-1,-1,-1,-1,-1,-1],"split_conditions":[9.92686E-1,1.5960356E0,9.70884E-1,-1.0555261E-1,9.70884E-1,1.4891243E0,8.7778196E-2,1.7702394E0,-9.388529E-1,9.917185E-1,1.0283912E0,-6.0348816E-2,1.0283912E0,-1.0147281E-1,5.3008642E-2,5.582292E-2,2.387451E-1,-1.0735271E-1,1.4537077E0,-2.5548218E-2,2.1542225E0,1.0494987E0,1.4980093E0,4.374754E-2,1.6975813E-1,1.8651142E0,3.3304802E-1,2.2174935E-1,4.8058372E-2,3.026457E-2,2.059631E0,-1.5436803E-2,6.874081E-2,1.358082E-1,-1.8149978E-2,-7.168036E-2,5.185947E-2,1.471761E-1,3.5885163E-2],"split_indices":[0,2,1,0,1,2,4,4,4,4,0,4,0,0,0,0,0,0,4,0,0,1,0,0,0,0,2,0,0,0,0,0,0,0,0,0,0,0,0],"split_type":[0,0,0,0,0,0,0,0,0,0,0,0,0,0,0,0,0,0,0,0,0,0,0,0,0,0,0,0,0,0,0,0,0,0,0,0,0,0,0],"sum_hessian":[4.5352118E2,3.2974457E2,1.2377662E2,3.0465536E2,2.50892E1,8.286489E1,4.0911724E1,1.752928E1,7.5599194E0,6.929415E1,1.3570742E1,2.237279E1,1.8538937E1,1.6017857E1,1.5114219E0,1.4125271E0,6.1473923E0,5.2971287E1,1.6322865E1,1.0388755E0,1.2531867E1,1.9411194E1,2.961596E0,1.2042997E0,1.7334637E1,9.113041E0,7.209823E0,1.1090481E1,1.441386E0,1.8658878E0,1.7545305E1,1.2440249E0,1.7175713E0,7.9213905E0,1.1916502E0,4.0493064E0,3.1605167E0,1.5833499E1,1.7118059E0],"tree_param":{"num_deleted":"0","num_feature":"6","num_nodes":"39","size_leaf_vector":"1"}},{"base_weights":[-5.968181E-1,-9.6056557E-1,3.198325E-1,-9.760823E-2,-5.255636E-1,8.4194325E-2,1.1378782E0,-7.12621E-1,4.0744834E-2,-2.5175992E-2,4.934773E-1,1.1983763E0,1.5521205E-2,-7.750486E-1,-6.0864715E-3,6.659738E-2,-4.317078E-1,2.3727393E-1,9.694567E-2,1.7338875E-1,9.78097E-1,-2.3309809E-1,-9.24483E-2,1.6251826E-1,-3.5002533E-1,2.5679985E-1,-6.6166896E-1,3.9794585E-1,-2.6989248E-1,4.601098E-1,1.2978832E0,-2.7807731E-2,-6.16046E-3,-1.3297915E-2,3.4205046E-2,-6.350458E-2,5.0266195E-2,6.0765266E-2,-1.8715238E-2,-9.457602E-2,-2.4134558E-2,-2.7376914E-2,5.8164395E-2,-4.9311813E-2,2.005307E-2,8.5147955E-2,-1.2177189E-2,1.3986504E-1,5.5919256E-2],"categories":[],"categories_nodes":[],"categories_segments":[],"categories_sizes":[],"default_left":[0,0,0,0,0,0,0,0,0,0,0,0,0,0,0,0,0,0,0,0,0,0,0,0,0,0,0,0,0,0,0,0,0,0,0,0,0,0,0,0,0,0,0,0,0,0,0,0,0],"id":9,"left_children":[1,3,5,-1,7,9,11,13,-1,15,17,19,-1,21,-1,23,25,27,-1,-1,29,31,-1,33,35,37,39,41,43,45,47,-1,-1,-1,-1,-1,-1,-1,-1,-1,-1,-1,-1,-1,-1,-1,-1,-1,-1],"loss_changes":[1.4110751E2,1.5292358E0,2.3173601E1,0E0,2.4872053E0,4.2559624E0,1.4141388E0,3.9424944E-1,0E0,2.8552675E0,2.2137055E0,1.2774658E0,0E0,5.794239E-1,0E0,2.5614994E0,2.4002252E0,1.2768455E0,0E0,0E0,2.7412186E0,9.547934E-3,0E0,2.7843843E0,3.2468524E0,7.7529013E-1,1.0660515E0,1.5539014E0,5.2402645E-1,2.2084033E0,1.04543686E-1,0E0,0E0,0E0,0E0,0E0,0E0,0E0,0E0,0E0,0E0,0E0,0E0,0E0,0E0,0E0,0E0,0E0,0E0],"parents":[2147483647,0,0,1,1,2,2,4,4,5,5,6,6,7,7,9,9,10,10,11,11,13,13,15,15,16,16,17,17,20,20,21,21,23,23,24,24,25,25,26,26,27,27,28,28,29,29,30,30],"right_children":[2,4,6,-1,8,10,12,14,-1,16,18,20,-1,22,-1,24,26,28,-1,-1,30,32,-1,34,36,38,40,42,44,46,48,-1,-1,-1,-1,-1,-1,-1,-1,-1,-1,-1,-1,-1,-1,-1,-1,-1,-1],"split_conditions":[9.92686E-1,1.8191838E0,9.917185E-1,-9.760823E-2,1.2035059E0,1.029361E0,2.3777506E0,6.8014306E-1,4.0744834E-2,8.6737674E-1,7.2872984E-1,-7.064342E-1,1.5521205E-2,-5.473033E-1,-6.0864715E-3,4.8040313E-1,1.1263751E0,3.239127E-1,9.694567E-2,1.7338875E-1,6.1121985E-2,-9.940685E-1,-9.24483E-2,-8.548243E-1,4.6662393E-1,-5.836608E-1,-3.2401383E-1,-9.1967887E-1,1.5071253E0,1.3061029E0,1.7513533E0,-2.7807731E-2,-6.16046E-3,-1.3297915E-2,3.4205046E-2,-6.350458E-2,5.0266195E-2,6.0765266E-2,-1.8715238E-2,-9.457602E-2,-2.4134558E-2,-2.7376914E-2,5.8164395E-2,-4.9311813E-2,2.005307E-2,8.5147955E-2,-1.2177189E-2,1.3986504E-1,5.5919256E-2],"split_indices":[0,4,4,0,5,5,4,0,0,3,3,3,0,3,0,5,0,4,0,0,3,3,0,5,4,5,5,3,5,4,0,0,0,0,0,0,0,0,0,0,0,0,0,0,0,0,0,0,0],"split_type":[0,0,0,0,0,0,0,0,0,0,0,0,0,0,0,0,0,0,0,0,0,0,0,0,0,0,0,0,0,0,0,0,0,0,0,0,0,0,0,0,0,0,0,0,0,0,0,0,0],"sum_hessian":[4.2127927E2,3.01564E2,1.1971525E2,2.8997653E2,1.1587462E1,9.379928E1,2.5915972E1,9.849062E0,1.7384003E0,7.476006E1,1.9039211E1,2.4206196E1,1.7097753E0,8.81551E0,1.033552E0,6.1673607E1,1.3086456E1,1.335121E1,5.688001E0,5.052346E0,1.9153849E1,2.458649E0,6.356861E0,5.062736E1,1.1046247E1,3.2472935E0,9.839163E0,1.0302651E1,3.0485582E0,8.242124E0,1.0911726E1,1.4554188E0,1.0032301E0,1.9232052E1,3.139531E1,8.470221E0,2.5760257E0,1.6078694E0,1.639424E0,5.1250963E0,4.7140665E0,2.1071765E0,8.195476E0,2.0347724E0,1.013786E0,4.6507435E0,3.59138E0,8.815724E0,2.0960019E0],"tree_param":{"num_deleted":"0","num_feature":"6","num_nodes":"49","size_leaf_vector":"1"}},{"base_weights":[-5.9317064E-1,-9.4671404E-1,2.4070543E-1,-1.0377438E-1,-5.4681736E-1,-2.5313547E-1,1.2598408E0,-6.4536107E-1,-1.2053344E-1,5.4674673E-1,-3.132746E-1,6.727348E-1,1.4231653E0,-6.9244224E-1,1.5583077E-1,2.3617381E-1,-6.4546037E-1,7.239391E-1,-1.5032929E-2,-4.275631E-1,-2.0400131E-2,9.2753315E-1,-6.631338E-2,3.0554429E-2,1.4604473E0,-7.180085E-1,-2.0956719E-1,8.5536994E-2,-5.757848E-2,-2.6960483E-1,9.072462E-1,-9.817828E-3,-7.81078E-2,1.435024E-2,8.8260345E-2,-5.415957E-1,1.6636044E-1,3.0692762E-1,-4.4682717E-1,1.0858464E0,-7.5115883E-3,1.6307206E-1,9.607635E-1,-6.3383984E-3,-7.341715E-2,2.4370195E-2,-5.825115E-2,4.352843E-2,-5.5655718E-2,-9.508538E-3,1.4142922E-1,-3.312519E-2,-7.103249E-2,-3.199067E-2,7.61316E-2,-3.10563E-2,8.829328E-2,1.8153723E-2,-8.00968E-2,4.5034315E-2,1.4761925E-1,-1.4131575E-2,1.2569879E-1],"categories":[],"categories_nodes":[],"categories_segments":[],"categories_sizes":[],"default_left":[0,0,0,0,0,0,0,0,0,0,0,0,0,0,0,0,0,0,0,0,0,0,0,0,0,0,0,0,0,0,0,0,0,0,0,0,0,0,0,0,0,0,0,0,0,0,0,0,0,0,0,0,0,0,0,0,0,0,0,0,0,0,0],"id":10,"left_children":[1,3,5,-1,7,9,11,13,15,17,19,21,23,25,27,29,31,33,-1,35,37,39,-1,-1,41,43,45,-1,-1,47,49,-1,-1,-1,-1,51,53,55,57,59,-1,-1,61,-1,-1,-1,-1,-1,-1,-1,-1,-1,-1,-1,-1,-1,-1,-1,-1,-1,-1,-1,-1],"loss_changes":[1.16019424E2,9.48056E0,5.9576088E1,0E0,2.1610365E0,4.0264287E0,2.7436905E0,1.7321339E0,2.256454E0,8.460207E-1,2.5074892E0,4.1199265E0,7.746582E-1,3.538704E-1,2.1334078E0,2.7638848E0,2.8063107E-1,3.274324E-1,0E0,3.7488537E0,3.2289872E0,1.5203872E0,0E0,0E0,8.232727E-1,3.5961723E-1,7.279352E-1,0E0,0E0,1.2542955E0,1.8721414E0,0E0,0E0,0E0,0E0,1.3815308E0,2.9822938E0,4.942244E0,2.3765934E0,1.2932148E0,0E0,0E0,3.3029957E0,0E0,0E0,0E0,0E0,0E0,0E0,0E0,0E0,0E0,0E0,0E0,0E0,0E0,0E0,0E0,0E0,0E0,0E0,0E0,0E0],"parents":[2147483647,0,0,1,1,2,2,4,4,5,5,6,6,7,7,8,8,9,9,10,10,11,11,12,12,13,13,14,14,15,15,16,16,17,17,19,19,20,20,21,21,24,24,25,25,26,26,29,29,30,30,35,35,36,36,37,37,38,38,39,39,42,42],"right_children":[2,4,6,-1,8,10,12,14,16,18,20,22,24,26,28,30,32,34,-1,36,38,40,-1,-1,42,44,46,-1,-1,48,50,-1,-1,-1,-1,52,54,56,58,60,-1,-1,62,-1,-1,-1,-1,-1,-1,-1,-1,-1,-1,-1,-1,-1,-1,-1,-1,-1,-1,-1,-1],"split_conditions":[9.92686E-1,9.889511E-1,9.70884E-1,-1.0377438E-1,1.0422735E0,-1.661789E0,-8.548243E-1,8.372432E-1,1.4191804E0,7.860227E-1,5.401884E-1,-9.7173524E-1,-1.7003611E0,2.403217E0,-3.2401383E-1,1.6436279E0,1.216498E0,-8.3091176E-1,-1.5032929E-2,5.443794E-1,-3.456228E-2,1.0791645E0,-6.631338E-2,3.0554429E-2,7.5982505E-1,-1.6620332E0,-3.4082872E-1,8.5536994E-2,-5.757848E-2,-7.108232E-1,9.370711E-2,-9.817828E-3,-7.81078E-2,1.435024E-2,8.8260345E-2,-4.4976145E-1,1.0663716E-1,-5.313023E-1,1.2523919E0,-2.600295E-1,-7.5115883E-3,1.6307206E-1,-1.9733123E-1,-6.3383984E-3,-7.341715E-2,2.4370195E-2,-5.825115E-2,4.352843E-2,-5.5655718E-2,-9.508538E-3,1.4142922E-1,-3.312519E-2,-7.103249E-2,-3.199067E-2,7.61316E-2,-3.10563E-2,8.829328E-2,1.8153723E-2,-8.00968E-2,4.5034315E-2,1.4761925E-1,-1.4131575E-2,1.2569879E-1],"split_indices":[0,1,1,0,5,1,5,0,5,3,3,5,3,1,5,1,1,3,0,1,1,3,0,0,3,5,0,0,0,0,3,0,0,0,0,3,5,1,0,3,0,0,5,0,0,0,0,0,0,0,0,0,0,0,0,0,0,0,0,0,0,0,0],"split_type":[0,0,0,0,0,0,0,0,0,0,0,0,0,0,0,0,0,0,0,0,0,0,0,0,0,0,0,0,0,0,0,0,0,0,0,0,0,0,0,0,0,0,0,0,0,0,0,0,0,0,0,0,0,0,0,0,0,0,0,0,0,0,0],"sum_hessian":[3.917648E2,2.7502533E2,1.1673945E2,2.2272966E2,5.2295677E1,7.914156E1,3.759789E1,4.2059006E1,1.0236672E1,4.9683614E0,7.41732E1,9.296954E0,2.8300936E1,3.9852833E1,2.2061722E0,6.422457E0,3.8142147E0,3.9306722E0,1.037689E0,5.3022373E1,2.1150827E1,8.064444E0,1.2325102E0,1.2104405E0,2.7090494E1,3.7386425E1,2.4664083E0,1.0413378E0,1.1648344E0,4.0033965E0,2.4190607E0,1.0998255E0,2.7143893E0,1.2526352E0,2.678037E0,4.4555817E1,8.466556E0,1.2124347E1,9.026482E0,6.8930826E0,1.1713611E0,1.8517076E1,8.57342E0,1.019428E0,3.6366997E1,1.2697388E0,1.1966696E0,1.0086814E0,2.9947152E0,1.0855703E0,1.3334905E0,2.1151201E1,2.3404615E1,4.913209E0,3.5533466E0,6.073861E0,6.050485E0,3.4292433E0,5.597238E0,3.442393E0,3.4506893E0,1.9270234E0,6.646396E0],"tree_param":{"num_deleted":"0","num_feature":"6","num_nodes":"63","size_leaf_vector":"1"}},{"base_weights":[-5.395683E-1,-7.082307E-1,7.3482746E-1,-7.879592E-1,-3.5651472E-1,5.884756E-1,1.256908E-1,-8.5720974E-1,-6.978568E-1,4.4646603E-1,-4.1463533E-1,6.843457E-1,2.0770628E-2,-8.648262E-1,8.205502E-3,-7.1607816E-1,-9.733581E-2,-4.1730575E-2,1.23663865E-1,-5.40171E-1,-1.7032216E-1,5.515002E-1,1.5609148E0,-6.222735E-2,3.2066897E-1,-9.030917E-2,-6.8834764E-1,-6.164212E-1,-8.028412E-1,-6.0873885E-2,2.8696394E-1,-1.6570862E-2,-6.6321003E-1,8.079374E-1,-3.1433982E-1,9.276242E-1,3.616622E-1,1.9235148E-1,3.2491054E-2,9.756769E-2,-1.6950236E-1,-8.536446E-2,-2.1706438E-2,-7.49305E-2,-2.8161941E-2,-8.2205825E-2,1.0311043E-2,4.9637537E-2,-1.9102729E-3,-3.0092834E-2,6.731131E-2,-1.8149093E-2,-7.513768E-2,1.4545328E-2,1.06429175E-1,-5.97245E-2,1.9847982E-2,-5.92296E-2,1.2263186E-1,-7.463546E-2,5.244602E-2,-4.1356176E-2,1.5620402E-2],"categories":[],"categories_nodes":[],"categories_segments":[],"categories_sizes":[],"default_left":[0,0,0,0,0,0,0,0,0,0,0,0,0,0,0,0,0,0,0,0,0,0,0,0,0,0,0,0,0,0,0,0,0,0,0,0,0,0,0,0,0,0,0,0,0,0,0,0,0,0,0,0,0,0,0,0,0,0,0,0,0,0,0],"id":11,"left_children":[1,3,5,7,9,11,-1,13,15,17,19,21,23,25,-1,27,29,-1,-1,31,33,35,37,-1,39,-1,41,43,45,-1,47,49,51,53,55,57,59,-1,-1,-1,61,-1,-1,-1,-1,-1,-1,-1,-1,-1,-1,-1,-1,-1,-1,-1,-1,-1,-1,-1,-1,-1,-1],"loss_changes":[8.097148E1,9.002426E0,2.640398E0,1.0805664E0,3.1254616E0,1.9686346E0,0E0,1.127945E0,1.2685623E0,3.7471197E0,1.7257862E0,2.76503E0,1.4134873E0,3.686676E-1,0E0,5.3009796E-1,1.1099777E0,0E0,0E0,2.4816275E0,3.2940109E0,1.7056074E0,9.6672535E-1,0E0,1.7555282E0,0E0,2.1779842E0,2.435152E0,1.1304588E0,0E0,2.2719407E-1,1.8475065E0,1.1931505E0,3.6302733E-1,2.9517708E0,4.7892723E0,4.113879E0,0E0,0E0,0E0,3.5751015E-1,0E0,0E0,0E0,0E0,0E0,0E0,0E0,0E0,0E0,0E0,0E0,0E0,0E0,0E0,0E0,0E0,0E0,0E0,0E0,0E0,0E0,0E0],"parents":[2147483647,0,0,1,1,2,2,3,3,4,4,5,5,7,7,8,8,9,9,10,10,11,11,12,12,13,13,15,15,16,16,19,19,20,20,21,21,22,22,24,24,26,26,27,27,28,28,30,30,31,31,32,32,33,33,34,34,35,35,36,36,40,40],"right_children":[2,4,6,8,10,12,-1,14,16,18,20,22,24,26,-1,28,30,-1,-1,32,34,36,38,-1,40,-1,42,44,46,-1,48,50,52,54,56,58,60,-1,-1,-1,62,-1,-1,-1,-1,-1,-1,-1,-1,-1,-1,-1,-1,-1,-1,-1,-1,-1,-1,-1,-1,-1,-1],"split_conditions":[1.4891243E0,9.917185E-1,1.1434541E0,7.8799635E-2,1.0204518E0,8.6737674E-1,1.256908E-1,1.7123301E0,9.15842E-1,3.8330144E-1,3.5570595E-1,6.772267E-1,1.7274581E0,1.029361E0,8.205502E-3,-1.7255226E-2,-6.0877E-2,-4.1730575E-2,1.23663865E-1,-7.9249406E-1,4.2818302E-1,-6.9219595E-1,-2.2910564E-1,-6.222735E-2,1.8644468E0,-9.030917E-2,6.2949747E-1,-3.4631258E-1,1.4382193E0,-6.0873885E-2,3.7885174E-1,1.0422735E0,-1.3099045E0,-4.0428102E-1,1.6061529E0,-8.1016046E-1,1.5960356E0,1.9235148E-1,3.2491054E-2,9.756769E-2,2.1220236E0,-8.536446E-2,-2.1706438E-2,-7.49305E-2,-2.8161941E-2,-8.2205825E-2,1.0311043E-2,4.9637537E-2,-1.9102729E-3,-3.0092834E-2,6.731131E-2,-1.8149093E-2,-7.513768E-2,1.4545328E-2,1.06429175E-1,-5.97245E-2,1.9847982E-2,-5.92296E-2,1.2263186E-1,-7.463546E-2,5.244602E-2,-4.1356176E-2,1.5620402E-2],"split_indices":[2,4,4,2,4,3,0,5,4,3,2,3,2,5,0,3,5,0,0,3,2,5,4,0,2,0,3,3,2,0,2,5,5,5,4,4,2,0,0,0,2,0,0,0,0,0,0,0,0,0,0,0,0,0,0,0,0,0,0,0,0,0,0],"split_type":[0,0,0,0,0,0,0,0,0,0,0,0,0,0,0,0,0,0,0,0,0,0,0,0,0,0,0,0,0,0,0,0,0,0,0,0,0,0,0,0,0,0,0,0,0,0,0,0,0,0,0,0,0,0,0,0,0,0,0,0,0,0,0],"sum_hessian":[3.732909E2,3.300536E2,4.323732E1,2.6805038E2,6.2003193E1,3.5432034E1,7.805287E0,1.4674902E2,1.2130137E2,3.7339587E0,5.8269234E1,3.0137207E1,5.294825E0,1.4564722E2,1.1017963E0,1.1754239E2,3.7589774E0,2.0093412E0,1.7246172E0,3.769129E1,2.0577942E1,2.7585707E1,2.5515018E0,1.3421116E0,3.9527133E0,1.1631054E2,2.9336683E1,5.847826E1,5.9064125E1,1.3622096E0,2.3967679E0,7.3875933E0,3.0303698E1,2.049108E0,1.8528833E1,7.949347E0,1.9636358E1,1.5426937E0,1.0088081E0,1.2679249E0,2.6847885E0,2.1118353E1,8.21833E0,4.0976517E1,1.7501745E1,5.7927963E1,1.1361638E0,1.0538993E0,1.3428686E0,5.6300073E0,1.7575862E0,5.1614494E0,2.5142248E1,1.0089972E0,1.0401108E0,1.1835153E1,6.693681E0,1.1441808E0,6.8051662E0,2.0563211E0,1.7580038E1,1.3805627E0,1.3042258E0],"tree_param":{"num_deleted":"0","num_feature":"6","num_nodes":"63","size_leaf_vector":"1"}},{"base_weights":[-5.050459E-1,-6.840417E-1,7.423213E-1,-7.7465475E-1,-2.961461E-1,5.79394E-1,1.2852533E0,-8.356032E-1,-6.9306827E-1,-4.2284325E-1,3.198755E-1,4.39244E-1,1.0147483E0,2.023521E-2,1.4880262E-1,-8.739066E-1,-6.748739E-1,-1.5413985E-1,-7.043359E-1,-8.684474E-1,-3.3661306E-1,-2.6417023E-1,9.3114823E-1,5.9467113E-1,-5.707282E-1,1.2330694E0,4.7749383E-4,-8.1375355E-1,-9.989086E-2,-8.5733265E-1,-1.0320661E-1,2.1137612E-2,-3.8268346E-2,-7.1288884E-1,-9.210403E-3,-2.3723988E-2,-9.283411E-2,4.0044162E-2,-3.6862612E-1,-5.560093E-1,5.9019912E-2,1.4014053E-1,-2.5900032E-3,1.0965914E0,3.3969232E-1,4.9137673E-3,-7.888487E-2,1.4174028E-1,2.2978421E-2,-8.2839094E-2,5.480505E-3,-2.7629599E-2,-9.614549E-2,1.0049898E-2,-4.0455252E-2,-7.2341494E-2,-2.5700083E-2,-4.2985585E-2,1.3023435E-2,-7.797825E-2,-1.1647008E-2,1.7789004E-2,1.2301201E-1,-1.3316943E-2,6.914345E-2],"categories":[],"categories_nodes":[],"categories_segments":[],"categories_sizes":[],"default_left":[0,0,0,0,0,0,0,0,0,0,0,0,0,0,0,0,0,0,0,0,0,0,0,0,0,0,0,0,0,0,0,0,0,0,0,0,0,0,0,0,0,0,0,0,0,0,0,0,0,0,0,0,0,0,0,0,0,0,0,0,0,0,0,0,0],"id":12,"left_children":[1,3,5,7,9,11,13,15,17,19,21,23,25,-1,-1,27,29,31,33,35,37,39,41,43,45,47,-1,49,-1,51,53,-1,-1,55,-1,-1,-1,-1,57,59,-1,-1,-1,61,63,-1,-1,-1,-1,-1,-1,-1,-1,-1,-1,-1,-1,-1,-1,-1,-1,-1,-1,-1,-1],"loss_changes":[8.08674E1,1.0851822E1,3.293085E0,6.8862915E-1,4.9211845E0,1.8075933E0,1.8321838E0,2.7870178E-1,5.8903885E-1,1.678483E0,4.183693E0,5.001657E0,1.8088808E0,0E0,0E0,1.8249512E-2,3.201254E0,3.843633E-1,5.2210236E-1,7.022524E-2,1.200139E0,1.9287691E0,2.561223E0,2.98425E0,6.433121E-1,9.251442E-1,0E0,1.0626831E0,0E0,1.1725101E0,5.788712E-1,0E0,0E0,3.4459305E-1,0E0,0E0,0E0,0E0,1.3777051E0,4.3045998E-1,0E0,0E0,0E0,8.1003475E-1,3.2259672E0,0E0,0E0,0E0,0E0,0E0,0E0,0E0,0E0,0E0,0E0,0E0,0E0,0E0,0E0,0E0,0E0,0E0,0E0,0E0,0E0],"parents":[2147483647,0,0,1,1,2,2,3,3,4,4,5,5,6,6,7,7,8,8,9,9,10,10,11,11,12,12,15,15,16,16,17,17,18,18,19,19,20,20,21,21,22,22,23,23,24,24,25,25,27,27,29,29,30,30,33,33,38,38,39,39,43,43,44,44],"right_children":[2,4,6,8,10,12,14,16,18,20,22,24,26,-1,-1,28,30,32,34,36,38,40,42,44,46,48,-1,50,-1,52,54,-1,-1,56,-1,-1,-1,-1,58,60,-1,-1,-1,62,64,-1,-1,-1,-1,-1,-1,-1,-1,-1,-1,-1,-1,-1,-1,-1,-1,-1,-1,-1,-1],"split_conditions":[1.4891243E0,9.917185E-1,1.1434541E0,7.8799635E-2,1.2035059E0,1.0422735E0,-6.6841704E-1,1.029361E0,-2.2799666E0,-1.1218435E0,4.975457E-2,6.3779664E-1,1.4809512E0,2.023521E-2,1.4880262E-1,-3.0933526E-1,8.087405E-1,-5.836608E-1,2.1804059E0,-1.4275134E0,-1.0121601E0,9.592454E-1,1.5071253E0,-5.3548914E-1,-1.1301775E0,2.6682487E-1,4.7749383E-4,-3.188797E-1,-9.989086E-2,1.1235877E0,1.2754445E0,2.1137612E-2,-3.8268346E-2,9.15842E-1,-9.210403E-3,-2.3723988E-2,-9.283411E-2,4.0044162E-2,1.3296065E0,1.6061529E0,5.9019912E-2,1.4014053E-1,-2.5900032E-3,-1.2495296E0,3.2629296E-1,4.9137673E-3,-7.888487E-2,1.4174028E-1,2.2978421E-2,-8.2839094E-2,5.480505E-3,-2.7629599E-2,-9.614549E-2,1.0049898E-2,-4.0455252E-2,-7.2341494E-2,-2.5700083E-2,-4.2985585E-2,1.3023435E-2,-7.797825E-2,-1.1647008E-2,1.7789004E-2,1.2301201E-1,-1.3316943E-2,6.914345E-2],"split_indices":[2,4,4,2,5,5,3,5,4,2,2,5,5,0,0,2,3,5,3,5,2,3,5,3,4,4,0,2,0,5,3,0,0,4,0,0,0,0,3,4,0,0,0,5,3,0,0,0,0,0,0,0,0,0,0,0,0,0,0,0,0,0,0,0,0],"split_type":[0,0,0,0,0,0,0,0,0,0,0,0,0,0,0,0,0,0,0,0,0,0,0,0,0,0,0,0,0,0,0,0,0,0,0,0,0,0,0,0,0,0,0,0,0,0,0,0,0,0,0,0,0,0,0,0,0,0,0,0,0,0,0,0,0],"sum_hessian":[3.5891562E2,3.1426984E2,4.464576E1,2.5394969E2,6.0320156E1,3.593058E1,8.715179E0,1.400699E2,1.1387978E2,5.02905E1,1.0029656E1,2.8700277E1,7.2303033E0,1.6896417E0,7.025537E0,1.09530525E2,3.0539383E1,2.6328287E0,1.11246956E2,6.683176E0,4.3607323E1,5.4194407E0,4.6102157E0,2.5228935E1,3.471342E0,5.763535E0,1.4667685E0,7.901642E1,3.0514105E1,2.277166E1,7.7677236E0,1.0417871E0,1.5910414E0,1.095521E2,1.6948564E0,1.0091338E0,5.674042E0,1.3361305E0,4.2271194E1,4.299885E0,1.1195561E0,2.779953E0,1.8302627E0,7.3870234E0,1.7841911E1,1.1052133E0,2.3661287E0,4.520266E0,1.243269E0,7.775234E1,1.2640755E0,4.0157905E0,1.8755869E1,5.032395E0,2.7353287E0,1.0650614E2,3.0459578E0,3.777326E1,4.4979362E0,2.3363419E0,1.9635428E0,1.2333795E0,6.153644E0,7.875691E0,9.96622E0],"tree_param":{"num_deleted":"0","num_feature":"6","num_nodes":"65","size_leaf_vector":"1"}},{"base_weights":[-4.9898142E-1,-9.022499E-1,3.4213603E-1,-1.0251853E0,9.7364575E-2,1.003133E-1,1.479969E0,-1.0296383E-1,-4.6005085E-1,-9.448169E-2,7.34655E-1,-9.375433E-2,6.4098716E-1,1.5712613E0,2.9075628E-2,-6.19422E-2,-4.275856E-3,-4.9451175E-1,2.4862705E-1,-1.6266387E-2,9.7692865E-1,-4.9830496E-1,-3.65302E-2,2.3593743E-1,9.618615E-1,3.445166E-2,1.6499454E0,1.3335325E-2,-8.980199E-2,6.498482E-1,-7.658018E-2,1.4505593E-1,1.2444578E-3,5.46212E-2,-8.032311E-1,-3.3698615E-1,3.6956362E-2,4.6862316E-1,-2.980084E-1,1.0899934E0,-2.0444626E-2,1.709946E-1,4.467257E-2,6.696487E-2,-5.1771462E-2,8.776772E-3,1.3929491E-1,8.3918534E-2,-3.4948282E-2,-8.976977E-2,-1.5869996E-2,3.2728244E-2,-5.913363E-2,1.979914E-2,-2.1837113E-2,-2.9361308E-2,8.40232E-2,-6.836983E-2,1.7110616E-2,1.1694989E-1,2.3828777E-2],"categories":[],"categories_nodes":[],"categories_segments":[],"categories_sizes":[],"default_left":[0,0,0,0,0,0,0,0,0,0,0,0,0,0,0,0,0,0,0,0,0,0,0,0,0,0,0,0,0,0,0,0,0,0,0,0,0,0,0,0,0,0,0,0,0,0,0,0,0,0,0,0,0,0,0,0,0,0,0,0,0],"id":13,"left_children":[1,3,5,7,9,11,13,-1,15,17,19,21,23,25,-1,-1,-1,27,29,-1,31,33,35,37,39,-1,41,43,-1,45,47,-1,-1,-1,49,51,53,55,57,59,-1,-1,-1,-1,-1,-1,-1,-1,-1,-1,-1,-1,-1,-1,-1,-1,-1,-1,-1,-1,-1],"loss_changes":[1.15966805E2,2.8456436E1,3.0455694E1,4.3640137E-2,3.2707021E0,9.797658E0,1.6517868E0,0E0,2.0061302E-1,3.006857E0,1.5007706E0,1.5829303E0,2.975484E0,1.1507645E0,0E0,0E0,0E0,2.068478E0,1.6123788E0,0E0,2.2673225E0,3.1433628E0,1.3741285E0,1.657426E0,2.2288513E0,0E0,4.2539978E-1,2.2387793E0,0E0,2.1611216E0,2.1699166E0,0E0,0E0,0E0,2.8238344E-1,2.257918E0,2.1176991E0,2.76686E0,8.9845717E-1,5.510111E-1,0E0,0E0,0E0,0E0,0E0,0E0,0E0,0E0,0E0,0E0,0E0,0E0,0E0,0E0,0E0,0E0,0E0,0E0,0E0,0E0,0E0],"parents":[2147483647,0,0,1,1,2,2,3,3,4,4,5,5,6,6,8,8,9,9,10,10,11,11,12,12,13,13,17,17,18,18,20,20,21,21,22,22,23,23,24,24,26,26,27,27,29,29,30,30,34,34,35,35,36,36,37,37,38,38,39,39],"right_children":[2,4,6,8,10,12,14,-1,16,18,20,22,24,26,-1,-1,-1,28,30,-1,32,34,36,38,40,-1,42,44,-1,46,48,-1,-1,-1,50,52,54,56,58,60,-1,-1,-1,-1,-1,-1,-1,-1,-1,-1,-1,-1,-1,-1,-1,-1,-1,-1,-1,-1,-1],"split_conditions":[9.92686E-1,1.5637474E0,1.4624181E0,1.4891243E0,1.1434541E0,9.15842E-1,2.1542225E0,-1.0296383E-1,2.527041E-1,-2.565978E-1,-7.9268956E-1,-1.1696949E0,4.975457E-2,1.0283912E0,2.9075628E-2,-6.19422E-2,-4.275856E-3,-8.418841E-1,9.964064E-2,-1.6266387E-2,1.5105978E-2,-1.3798248E0,-8.5512906E-1,1.562758E0,1.2234273E0,3.445166E-2,1.2754445E0,-4.3599474E-1,-8.980199E-2,4.1730747E-2,-1.4610041E0,1.4505593E-1,1.2444578E-3,5.46212E-2,4.4139123E-1,-1.7419924E0,1.2405922E-2,1.1101414E0,2.0490994E0,1.9653523E0,-2.0444626E-2,1.709946E-1,4.467257E-2,6.696487E-2,-5.1771462E-2,8.776772E-3,1.3929491E-1,8.3918534E-2,-3.4948282E-2,-8.976977E-2,-1.5869996E-2,3.2728244E-2,-5.913363E-2,1.979914E-2,-2.1837113E-2,-2.9361308E-2,8.40232E-2,-6.836983E-2,1.7110616E-2,1.1694989E-1,2.3828777E-2],"split_indices":[0,2,2,2,4,4,0,0,3,0,0,3,2,0,0,0,0,0,0,0,0,4,2,4,2,0,3,4,0,0,3,0,0,0,4,2,4,4,4,4,0,0,0,0,0,0,0,0,0,0,0,0,0,0,0,0,0,0,0,0,0],"split_type":[0,0,0,0,0,0,0,0,0,0,0,0,0,0,0,0,0,0,0,0,0,0,0,0,0,0,0,0,0,0,0,0,0,0,0,0,0,0,0,0,0,0,0,0,0,0,0,0,0,0,0,0,0,0,0,0,0,0,0,0,0],"sum_hessian":[3.3997717E2,2.2975156E2,1.102256E2,2.0456766E2,2.5183897E1,9.1802956E1,1.8422647E1,2.0215286E2,2.414792E0,2.0011496E1,5.1724014E0,6.816327E1,2.3639692E1,1.6810865E1,1.6117809E0,1.3969055E0,1.0178866E0,9.035615E0,1.0975881E1,1.1694936E0,4.0029078E0,7.4917536E0,6.0671513E1,1.1216301E1,1.2423391E1,1.3374519E0,1.5473413E1,4.4286985E0,4.606917E0,4.4667788E0,6.509102E0,2.34659E0,1.6563178E0,1.5140657E0,5.977688E0,1.1218412E1,4.94531E1,7.89717E0,3.3191307E0,1.1252602E1,1.1707902E0,1.4337318E1,1.1360958E0,1.8640136E0,2.5646849E0,3.1797385E0,1.2870402E0,1.0180035E0,5.4910984E0,4.870975E0,1.1067128E0,3.0267973E0,8.191615E0,3.046401E1,1.898909E1,2.6570246E0,5.2401457E0,1.5704981E0,1.7486326E0,9.950601E0,1.3020012E0],"tree_param":{"num_deleted":"0","num_feature":"6","num_nodes":"61","size_leaf_vector":"1"}},{"base_weights":[-4.9098957E-1,-7.8300285E-1,3.6030778E-1,-9.218858E-1,9.663413E-2,1.0687917E-1,1.7253152E-1,-1.0395231E-1,-4.4405904E-1,8.916872E-2,7.657229E-3,-2.8946164E-1,2.1163669E-1,-7.234129E-1,-2.1801871E-1,5.146224E-1,-1.5032783E-1,5.1744632E-2,-6.7825454E-1,-5.4527235E-1,2.7883267E-1,-1.711812E-1,-9.945411E-2,1.051816E-1,-3.5755584E-1,8.576103E-1,1.1812438E-1,-3.216113E-1,4.2240754E-1,-3.4110737E-1,4.0292987E-1,-9.2348225E-2,3.4565465E-3,-8.762502E-2,1.2647978E-2,3.6052734E-1,-1.7250957E-1,6.9210574E-2,-4.5782346E-2,6.0605933E-3,-5.7643272E-2,1.0133982E-1,2.3156522E-2,-4.259875E-2,9.8090135E-2,3.179873E-2,-4.794532E-2,7.660877E-2,-1.8672522E-2,2.3117913E-2,-5.7544213E-2,5.6717306E-2,-3.8459022E-3,1.978266E-2,5.7612427E-2,1.580383E-2,-4.491467E-2],"categories":[],"categories_nodes":[],"categories_segments":[],"categories_sizes":[],"default_left":[0,0,0,0,0,0,0,0,0,0,0,0,0,0,0,0,0,0,0,0,0,0,0,0,0,0,0,0,0,0,0,0,0,0,0,0,0,0,0,0,0,0,0,0,0,0,0,0,0,0,0,0,0,0,0,0,0],"id":14,"left_children":[1,3,5,7,9,11,-1,-1,13,-1,15,17,19,21,23,25,27,29,31,33,35,37,-1,-1,39,41,43,45,47,49,51,-1,-1,-1,-1,53,55,-1,-1,-1,-1,-1,-1,-1,-1,-1,-1,-1,-1,-1,-1,-1,-1,-1,-1,-1,-1],"loss_changes":[8.048829E1,2.9476593E1,2.8559608E1,1.1221481E1,2.377603E0,3.0152352E0,0E0,0E0,2.5453405E0,0E0,2.5860698E0,2.0642295E0,3.0435252E0,2.6317616E0,4.8222384E0,9.4149137E-1,2.5544605E0,1.3895495E0,1.2940505E0,1.2166842E0,2.0118747E0,2.140707E0,0E0,0E0,2.1724944E0,1.5073967E-1,2.6318986E0,2.12578E0,1.4217536E0,7.801259E-1,4.0244025E-1,0E0,0E0,0E0,0E0,1.4679041E0,8.738763E-1,0E0,0E0,0E0,0E0,0E0,0E0,0E0,0E0,0E0,0E0,0E0,0E0,0E0,0E0,0E0,0E0,0E0,0E0,0E0,0E0],"parents":[2147483647,0,0,1,1,2,2,3,3,4,4,5,5,8,8,10,10,11,11,12,12,13,13,14,14,15,15,16,16,17,17,18,18,19,19,20,20,21,21,24,24,25,25,26,26,27,27,28,28,29,29,30,30,35,35,36,36],"right_children":[2,4,6,8,10,12,-1,-1,14,-1,16,18,20,22,24,26,28,30,32,34,36,38,-1,-1,40,42,44,46,48,50,52,-1,-1,-1,-1,54,56,-1,-1,-1,-1,-1,-1,-1,-1,-1,-1,-1,-1,-1,-1,-1,-1,-1,-1,-1,-1],"split_conditions":[9.70884E-1,1.4891243E0,1.4891243E0,9.917185E-1,-1.8012488E0,-6.7997915E-1,1.7253152E-1,-1.0395231E-1,-3.4787962E-1,8.916872E-2,-1.1478605E0,-1.178177E0,-1.379974E0,-4.6853402E-1,-2.86794E-1,-1.8769325E-1,1.1434541E0,3.6731414E-2,1.9202782E0,9.629148E-1,1.0791645E0,-1.3454987E0,-9.945411E-2,1.051816E-1,1.1981208E0,2.1656096E-2,4.7876057E-1,-8.89645E-1,1.256104E-1,-1.3166583E0,8.470614E-1,-9.2348225E-2,3.4565465E-3,-8.762502E-2,1.2647978E-2,1.5370495E0,-2.0964396E-1,6.9210574E-2,-4.5782346E-2,6.0605933E-3,-5.7643272E-2,1.0133982E-1,2.3156522E-2,-4.259875E-2,9.8090135E-2,3.179873E-2,-4.794532E-2,7.660877E-2,-1.8672522E-2,2.3117913E-2,-5.7544213E-2,5.6717306E-2,-3.8459022E-3,1.978266E-2,5.7612427E-2,1.580383E-2,-4.491467E-2],"split_indices":[1,2,2,4,3,4,0,0,1,0,1,4,3,3,1,4,4,2,1,4,3,1,0,0,4,3,3,3,1,2,2,0,0,0,0,1,2,0,0,0,0,0,0,0,0,0,0,0,0,0,0,0,0,0,0,0,0],"split_type":[0,0,0,0,0,0,0,0,0,0,0,0,0,0,0,0,0,0,0,0,0,0,0,0,0,0,0,0,0,0,0,0,0,0,0,0,0,0,0,0,0,0,0,0,0,0,0,0,0,0,0,0,0,0,0,0,0],"sum_hessian":[3.2164426E2,2.3955275E2,8.2091515E1,2.0684644E2,3.2706318E1,7.014637E1,1.1945146E1,1.6503943E2,4.1807007E1,2.3838518E0,3.0322466E1,1.4295908E1,5.5850464E1,1.7714285E1,2.4092722E1,6.667957E0,2.365451E1,8.075619E0,6.2202883E0,3.9738264E0,5.1876637E1,6.3704243E0,1.1343861E1,1.7380438E0,2.2354677E1,2.9516714E0,3.7162855E0,1.8546438E1,5.1080728E0,3.8252337E0,4.2503858E0,4.4082184E0,1.81207E0,2.4582171E0,1.5156093E0,4.409626E1,7.78038E0,1.2353538E0,5.1350703E0,7.9291787E0,1.4425499E1,1.8680797E0,1.0835916E0,2.5894833E0,1.1268022E0,3.4701774E0,1.507626E1,3.1008599E0,2.0072126E0,1.1151961E0,2.7100375E0,2.8900201E0,1.3603655E0,2.6223902E1,1.7872356E1,3.7401135E0,4.0402665E0],"tree_param":{"num_deleted":"0","num_feature":"6","num_nodes":"57","size_leaf_vector":"1"}},{"base_weights":[-4.436112E-1,-8.7071264E-1,3.6608765E-1,-1.01528205E-1,1.2897658E-1,1.4233795E-1,1.400368E0,-1.2562956E-1,9.399204E-1,-1.8641395E-2,6.396497E-1,2.9276675E-2,1.4681292E0,-6.305327E-1,1.1311085E-2,1.5265627E-1,-3.537689E-2,-3.0062586E-1,1.0116687E-1,7.047232E-1,-2.1867475E-2,1.6255467E-1,7.8174466E-1,-8.919465E-3,-7.714206E-2,-1.5871109E-1,5.479104E-1,3.746398E-2,-3.8202035E-1,-8.11414E-2,2.607874E-1,3.9649327E-4,7.768291E-1,2.2907622E-1,1.11397564E-1,-4.5097116E-2,1.6521968E-2,8.024709E-2,-1.2180387E-2,-5.990244E-2,3.1091555E-3,2.3068475E-2,-6.403674E-2,3.3960067E-2,-3.871743E-2,1.274447E-1,5.9044104E-2,6.722008E-2,-2.9500494E-2],"categories":[],"categories_nodes":[],"categories_segments":[],"categories_sizes":[],"default_left":[0,0,0,0,0,0,0,0,0,0,0,0,0,0,0,0,0,0,0,0,0,0,0,0,0,0,0,0,0,0,0,0,0,0,0,0,0,0,0,0,0,0,0,0,0,0,0,0,0],"id":15,"left_children":[1,3,5,-1,7,9,11,13,15,17,19,-1,21,23,25,-1,-1,27,29,31,-1,-1,33,-1,-1,35,37,-1,39,41,43,-1,45,47,-1,-1,-1,-1,-1,-1,-1,-1,-1,-1,-1,-1,-1,-1,-1],"loss_changes":[1.05864075E2,2.9050568E1,2.4353867E1,0E0,5.5211916E0,7.0842195E0,9.7794724E-1,1.4451457E0,5.375035E0,2.3179173E0,1.3623037E0,0E0,6.12175E-1,2.70967E-1,1.6692322E0,0E0,0E0,1.2666552E0,1.4257617E0,1.0248652E0,0E0,0E0,6.954806E-1,0E0,0E0,1.3947572E0,8.4745336E-1,0E0,1.6984212E0,4.2099833E0,1.4578502E0,0E0,9.5788E-1,9.4208777E-1,0E0,0E0,0E0,0E0,0E0,0E0,0E0,0E0,0E0,0E0,0E0,0E0,0E0,0E0,0E0],"parents":[2147483647,0,0,1,1,2,2,4,4,5,5,6,6,7,7,8,8,9,9,10,10,12,12,13,13,14,14,17,17,18,18,19,19,22,22,25,25,26,26,28,28,29,29,30,30,32,32,33,33],"right_children":[2,4,6,-1,8,10,12,14,16,18,20,-1,22,24,26,-1,-1,28,30,32,-1,-1,34,-1,-1,36,38,-1,40,42,44,-1,46,48,-1,-1,-1,-1,-1,-1,-1,-1,-1,-1,-1,-1,-1,-1,-1],"split_conditions":[9.92686E-1,1.5960356E0,1.4891243E0,-1.01528205E-1,1.0422735E0,1.0036238E0,1.0283912E0,-9.803631E-1,1.4191804E0,-6.4996505E-1,2.3777506E0,2.9276675E-2,1.6302481E0,-1.0481635E0,9.15842E-1,1.5265627E-1,-3.537689E-2,-2.2799666E0,1.8411243E-3,-1.1958948E0,-2.1867475E-2,1.6255467E-1,1.7745582E0,-8.919465E-3,-7.714206E-2,5.2210316E-2,1.5105978E-2,3.746398E-2,4.1562757E-1,-4.988665E-1,1.2406253E0,3.9649327E-4,1.0898957E0,-5.138632E-1,1.11397564E-1,-4.5097116E-2,1.6521968E-2,8.024709E-2,-1.2180387E-2,-5.990244E-2,3.1091555E-3,2.3068475E-2,-6.403674E-2,3.3960067E-2,-3.871743E-2,1.274447E-1,5.9044104E-2,6.722008E-2,-2.9500494E-2],"split_indices":[0,2,2,0,5,4,0,0,5,4,4,0,0,5,4,0,0,4,2,2,0,0,2,0,0,0,0,0,2,2,2,0,0,5,0,0,0,0,0,0,0,0,0,0,0,0,0,0,0],"split_type":[0,0,0,0,0,0,0,0,0,0,0,0,0,0,0,0,0,0,0,0,0,0,0,0,0,0,0,0,0,0,0,0,0,0,0,0,0,0,0,0,0,0,0,0,0,0,0,0,0],"sum_hessian":[3.0419992E2,1.9910191E2,1.0509799E2,1.7393309E2,2.516882E1,8.734085E1,1.7757147E1,1.9798052E1,5.3707676E0,6.670955E1,2.0631302E1,1.330459E0,1.6426687E1,3.4549932E0,1.6343058E1,3.5713017E0,1.799466E0,1.9441708E1,4.7267838E1,1.9343721E1,1.2875807E0,1.2249153E1,4.1775346E0,1.0507509E0,2.4042423E0,1.2945491E1,3.3975673E0,1.7038062E0,1.7737902E1,2.2295277E1,2.497256E1,1.9031394E0,1.744058E1,2.2027516E0,1.974783E0,6.5992584E0,6.3462324E0,2.3181882E0,1.0793792E0,1.1334145E1,6.403757E0,1.4691014E1,7.6042624E0,2.2688763E1,2.2837982E0,3.1617532E0,1.4278828E1,1.0404209E0,1.1623307E0],"tree_param":{"num_deleted":"0","num_feature":"6","num_nodes":"49","size_leaf_vector":"1"}},{"base_weights":[-4.1254228E-1,-8.6590123E-1,3.694311E-1,-1.0217559E0,1.1882675E-1,-1.3395508E-1,1.2490696E0,-1.02759674E-1,-3.448883E-2,-8.158534E-1,1.4331404E0,-5.476161E-1,1.1771357E0,1.3122048E0,7.375768E-1,-9.249742E-1,1.5074201E-2,6.920275E-1,1.6102545E-1,-6.1599624E-1,2.2580858E-1,1.3313738E0,3.8618498E-2,3.8393807E-2,1.3492777E0,1.0110959E0,-1.1821262E-2,-3.210451E-2,-9.844974E-2,1.3679065E-1,-3.3540703E-2,-3.1747097E-1,-7.081679E-1,7.293239E-2,-2.1757564E-1,1.6222589E-2,1.41188E0,-1.9191403E-2,2.5363684E-2,3.977521E-2,1.3718863E-1,1.1935931E-1,2.1452494E-2,-5.6916695E-2,5.0037634E-2,-3.993486E-2,-8.553298E-2,-6.3247345E-2,4.011577E-2,1.4873548E-1,3.0956998E-2],"categories":[],"categories_nodes":[],"categories_segments":[],"categories_sizes":[],"default_left":[0,0,0,0,0,0,0,0,0,0,0,0,0,0,0,0,0,0,0,0,0,0,0,0,0,0,0,0,0,0,0,0,0,0,0,0,0,0,0,0,0,0,0,0,0,0,0,0,0,0,0],"id":16,"left_children":[1,3,5,7,9,11,13,-1,-1,15,17,19,21,23,25,27,-1,29,-1,31,33,35,37,-1,39,41,-1,-1,-1,-1,-1,43,45,-1,47,-1,49,-1,-1,-1,-1,-1,-1,-1,-1,-1,-1,-1,-1,-1,-1],"loss_changes":[1.0350671E2,2.8444382E1,4.77769E1,2.7590942E-1,3.3248016E1,3.8223045E1,2.9906082E-1,0E0,0E0,1.8162489E0,3.5779762E-1,2.9607725E0,2.9225063E0,6.3954544E-1,1.6630108E0,2.0248413E-1,0E0,3.178813E0,0E0,1.1313477E0,1.2895917E0,1.1719952E0,1.9988298E-1,0E0,1.4160919E-1,4.8557281E-1,0E0,0E0,0E0,0E0,0E0,3.0514586E0,1.3329945E0,0E0,1.1429397E0,0E0,6.873665E-1,0E0,0E0,0E0,0E0,0E0,0E0,0E0,0E0,0E0,0E0,0E0,0E0,0E0,0E0],"parents":[2147483647,0,0,1,1,2,2,3,3,4,4,5,5,6,6,9,9,10,10,11,11,12,12,13,13,14,14,15,15,17,17,19,19,20,20,21,21,22,22,24,24,25,25,31,31,32,32,34,34,36,36],"right_children":[2,4,6,8,10,12,14,-1,-1,16,18,20,22,24,26,28,-1,30,-1,32,34,36,38,-1,40,42,-1,-1,-1,-1,-1,44,46,-1,48,-1,50,-1,-1,-1,-1,-1,-1,-1,-1,-1,-1,-1,-1,-1,-1],"split_conditions":[9.92686E-1,1.5637474E0,9.70884E-1,1.4891243E0,9.356798E-1,1.4624181E0,1.0791645E0,-1.02759674E-1,-3.448883E-2,1.21742E0,-6.6841704E-1,1.3296065E0,1.9309862E0,1.0283912E0,1.9760964E0,1.6213899E0,1.5074201E-2,-1.2882673E0,1.6102545E-1,-7.064342E-1,1.5231161E0,1.0103091E0,1.6898721E0,3.8393807E-2,-2.0231192E0,1.4411061E0,-1.1821262E-2,-3.210451E-2,-9.844974E-2,1.3679065E-1,-3.3540703E-2,-8.7222695E-1,-4.3658268E-1,7.293239E-2,1.6701381E0,1.6222589E-2,1.2591392E0,-1.9191403E-2,2.5363684E-2,3.977521E-2,1.3718863E-1,1.1935931E-1,2.1452494E-2,-5.6916695E-2,5.0037634E-2,-3.993486E-2,-8.553298E-2,-6.3247345E-2,4.011577E-2,1.4873548E-1,3.0956998E-2],"split_indices":[0,2,1,2,1,2,3,0,0,3,3,3,0,0,1,2,0,3,0,3,3,0,2,0,3,0,0,0,0,0,0,3,2,0,0,0,3,0,0,0,0,0,0,0,0,0,0,0,0,0,0],"split_type":[0,0,0,0,0,0,0,0,0,0,0,0,0,0,0,0,0,0,0,0,0,0,0,0,0,0,0,0,0,0,0,0,0,0,0,0,0,0,0,0,0,0,0,0,0,0,0,0,0,0,0],"sum_hessian":[2.90065E2,1.8354509E2,1.0651991E2,1.5843214E2,2.5112946E1,6.828851E1,3.8231403E1,1.5656297E2,1.8691708E0,1.489766E1,1.0215285E1,5.2352993E1,1.5935522E1,3.2637413E1,5.5939884E0,1.3425132E1,1.4725288E0,2.91694E0,7.2983446E0,4.828735E1,4.0656424E0,1.388508E1,2.050442E0,1.6895328E0,3.094788E1,4.101598E0,1.4923906E0,1.7780854E0,1.1647046E1,1.5596031E0,1.357337E0,1.2440251E1,3.58471E1,1.6017559E0,2.4638867E0,1.0887558E0,1.2796325E1,1.0413783E0,1.0090638E0,1.1497892E0,2.9798092E1,2.931555E0,1.1700431E0,9.7451935E0,2.6950576E0,1.276771E1,2.3079388E1,1.4615936E0,1.002293E0,1.1649388E1,1.1469357E0],"tree_param":{"num_deleted":"0","num_feature":"6","num_nodes":"51","size_leaf_vector":"1"}},{"base_weights":[-3.9761993E-1,-8.700592E-1,3.462103E-1,-9.9211884E-1,2.8803373E-2,-1.4892305E-1,1.1954361E0,-1.01592995E-1,-5.4528487E-1,-9.739178E-2,1.2196264E0,-5.595198E-1,1.0649822E0,4.895763E-1,1.2397386E0,-9.078147E-2,4.7922912E-1,5.6773055E-1,1.53848E-1,-6.27938E-1,1.5062575E-1,-2.2468882E-2,1.1582048E0,-1.3670213E-2,9.598457E-2,1.3430505E0,8.994847E-1,-9.405637E-3,8.2265824E-2,1.2800443E-1,3.758993E-2,-4.2133892E-1,-7.6577777E-1,-5.6369275E-2,4.6819314E-1,1.3777974E-1,5.392705E-1,3.3897676E-2,1.3794084E-1,1.0260081E0,5.7245195E-3,-3.580402E-2,4.421511E-2,-4.948683E-2,1.3289399E-2,-9.391796E-2,-5.346752E-2,9.718495E-2,-2.9543975E-2,1.18014805E-1,-1.9083124E-3,4.055274E-2,1.3161716E-1],"categories":[],"categories_nodes":[],"categories_segments":[],"categories_sizes":[],"default_left":[0,0,0,0,0,0,0,0,0,0,0,0,0,0,0,0,0,0,0,0,0,0,0,0,0,0,0,0,0,0,0,0,0,0,0,0,0,0,0,0,0,0,0,0,0,0,0,0,0,0,0,0,0],"id":17,"left_children":[1,3,5,7,9,11,13,-1,15,-1,17,19,21,23,25,-1,27,29,-1,31,33,-1,35,-1,-1,37,39,-1,-1,-1,41,43,45,-1,47,-1,49,-1,-1,51,-1,-1,-1,-1,-1,-1,-1,-1,-1,-1,-1,-1,-1],"loss_changes":[9.587949E1,1.8309212E1,4.4901104E1,1.0071259E0,2.6134804E1,3.4527493E1,6.215172E-1,0E0,3.993922E0,0E0,1.2039995E0,2.5980892E0,2.3703575E0,1.3012364E0,6.838608E-2,0E0,6.9930947E-1,1.790029E0,0E0,1.0212574E0,1.4740263E0,0E0,1.5037155E0,0E0,0E0,4.7522736E-1,1.1651735E0,0E0,0E0,0E0,7.6987183E-1,9.2599916E-1,5.831585E-1,0E0,1.9175115E0,0E0,2.15956E0,0E0,0E0,1.253375E0,0E0,0E0,0E0,0E0,0E0,0E0,0E0,0E0,0E0,0E0,0E0,0E0,0E0],"parents":[2147483647,0,0,1,1,2,2,3,3,4,4,5,5,6,6,8,8,10,10,11,11,12,12,13,13,14,14,16,16,17,17,19,19,20,20,22,22,25,25,26,26,30,30,31,31,32,32,34,34,36,36,39,39],"right_children":[2,4,6,8,10,12,14,-1,16,-1,18,20,22,24,26,-1,28,30,-1,32,34,-1,36,-1,-1,38,40,-1,-1,-1,42,44,46,-1,48,-1,50,-1,-1,52,-1,-1,-1,-1,-1,-1,-1,-1,-1,-1,-1,-1,-1],"split_conditions":[9.92686E-1,1.6536188E0,9.70884E-1,1.3601991E0,9.70884E-1,1.4624181E0,-1.4057975E0,-1.01592995E-1,1.1330756E0,-9.739178E-2,-2.9933622E-1,1.3296065E0,1.0103091E0,1.3657767E0,6.772267E-1,-9.078147E-2,-2.686222E-1,-9.6947926E-1,1.53848E-1,-3.7119263E-1,-6.764247E-1,-2.2468882E-2,1.6302481E0,-1.3670213E-2,9.598457E-2,1.0283912E0,2.0642786E0,-9.405637E-3,8.2265824E-2,1.2800443E-1,-6.436118E-1,5.719005E-1,3.3915213E-1,-5.6369275E-2,-1.05440505E-1,1.3777974E-1,-5.09783E-1,3.3897676E-2,1.3794084E-1,1.3268348E0,5.7245195E-3,-3.580402E-2,4.421511E-2,-4.948683E-2,1.3289399E-2,-9.391796E-2,-5.346752E-2,9.718495E-2,-2.9543975E-2,1.18014805E-1,-1.9083124E-3,4.055274E-2,1.3161716E-1],"split_indices":[0,2,1,2,1,2,3,0,1,0,0,3,0,0,3,0,0,0,0,3,1,0,0,0,0,0,1,0,0,0,0,1,3,0,1,0,3,0,0,1,0,0,0,0,0,0,0,0,0,0,0,0,0],"split_type":[0,0,0,0,0,0,0,0,0,0,0,0,0,0,0,0,0,0,0,0,0,0,0,0,0,0,0,0,0,0,0,0,0,0,0,0,0,0,0,0,0,0,0,0,0,0,0,0,0,0,0,0,0],"sum_hessian":[2.7098148E2,1.6561952E2,1.0536194E2,1.45727E2,1.9892517E1,6.707759E1,3.8284344E1,1.3714514E2,8.581876E0,1.089806E1,8.994458E0,5.0526394E1,1.65512E1,2.9726505E0,3.5311695E1,6.422977E0,2.1588986E0,3.86763E0,5.1268287E0,4.6191856E1,4.3345385E0,1.0206715E0,1.5530529E1,1.5790591E0,1.3935914E0,2.4826406E1,1.0485288E1,1.0808177E0,1.0780809E0,1.0467057E0,2.8209243E0,2.0108805E1,2.608305E1,1.0954531E0,3.239085E0,1.0558414E1,4.972114E0,1.2283071E0,2.35981E1,8.926183E0,1.5591047E0,1.4843417E0,1.3365824E0,1.784804E1,2.2607656E0,1.3151362E1,1.2931688E1,1.7874808E0,1.4516041E0,1.7964875E0,3.1756268E0,3.6081522E0,5.3180304E0],"tree_param":{"num_deleted":"0","num_feature":"6","num_nodes":"53","size_leaf_vector":"1"}},{"base_weights":[-4.1161254E-1,-8.465836E-1,2.413426E-1,-9.903385E-1,-1.8301973E-2,4.3769088E-2,1.145122E0,-1.0038964E-1,-5.416747E-1,-2.7617005E-1,7.64188E-1,-5.634591E-2,4.0603614E-1,1.1914442E0,2.4345707E-2,-1.3446854E-1,-7.6081656E-2,-3.619113E-1,5.0421923E-2,1.1805989E0,-2.8998215E-2,2.2553317E-2,-3.6432278E-1,5.5866754E-1,-2.2699651E-1,2.2102064E-2,1.2393731E-1,-5.8666267E-2,4.353657E-2,-5.102493E-1,9.036349E-2,2.8235454E-2,1.3757204E-1,-6.7534685E-2,3.9220458E-1,6.411834E-2,-8.499026E-1,2.3074323E-1,9.354332E-1,2.1305203E-2,-4.2114586E-2,-2.8408905E-2,-8.896768E-2,-3.767486E-2,4.6059486E-2,-2.47233E-3,-7.728219E-2,-4.594078E-3,7.896528E-2,-4.2822536E-2,4.466604E-2,-9.4259985E-2,-1.6842065E-2,5.3037245E-2,-7.13248E-2,1.1506245E-1,5.217732E-2],"categories":[],"categories_nodes":[],"categories_segments":[],"categories_sizes":[],"default_left":[0,0,0,0,0,0,0,0,0,0,0,0,0,0,0,0,0,0,0,0,0,0,0,0,0,0,0,0,0,0,0,0,0,0,0,0,0,0,0,0,0,0,0,0,0,0,0,0,0,0,0,0,0,0,0,0,0],"id":18,"left_children":[1,3,5,7,9,11,13,-1,15,17,19,21,23,25,-1,27,-1,29,-1,31,-1,33,35,37,39,-1,-1,-1,-1,41,43,-1,-1,45,47,49,51,53,55,-1,-1,-1,-1,-1,-1,-1,-1,-1,-1,-1,-1,-1,-1,-1,-1,-1,-1],"loss_changes":[7.3561844E1,1.846634E1,1.8528498E1,2.607422E-1,5.049198E0,3.1571953E0,4.878502E-1,0E0,4.3769777E-1,1.4383345E0,3.067739E0,1.6748114E0,1.9465258E0,5.380764E-1,0E0,1.113965E0,0E0,1.2197056E0,0E0,4.2615986E-1,0E0,1.8760593E0,2.9766142E0,1.6947017E0,4.6306738E-1,0E0,0E0,0E0,0E0,8.9052343E-1,1.0676138E0,0E0,0E0,1.3550496E0,1.9571066E0,1.7717957E0,2.6159096E-1,3.0922534E0,1.1043072E-2,0E0,0E0,0E0,0E0,0E0,0E0,0E0,0E0,0E0,0E0,0E0,0E0,0E0,0E0,0E0,0E0,0E0,0E0],"parents":[2147483647,0,0,1,1,2,2,3,3,4,4,5,5,6,6,8,8,9,9,10,10,11,11,12,12,13,13,15,15,17,17,19,19,21,21,22,22,23,23,24,24,29,29,30,30,33,33,34,34,35,35,36,36,37,37,38,38],"right_children":[2,4,6,8,10,12,14,-1,16,18,20,22,24,26,-1,28,-1,30,-1,32,-1,34,36,38,40,-1,-1,-1,-1,42,44,-1,-1,46,48,50,52,54,56,-1,-1,-1,-1,-1,-1,-1,-1,-1,-1,-1,-1,-1,-1,-1,-1,-1,-1],"split_conditions":[9.92686E-1,1.5637474E0,1.4891243E0,1.3601991E0,1.029361E0,1.029361E0,1.3110495E0,-1.0038964E-1,-1.9979815E-1,8.372432E-1,1.4191804E0,7.959137E-1,7.0089054E-1,1.0103091E0,2.4345707E-2,-8.565514E-2,-7.6081656E-2,7.860227E-1,5.0421923E-2,-6.823451E-1,-2.8998215E-2,4.014271E-1,1.4411061E0,2.89535E-2,1.0898957E0,2.2102064E-2,1.2393731E-1,-5.8666267E-2,4.353657E-2,1.0329651E-1,-2.9933622E-1,2.8235454E-2,1.3757204E-1,1.2406253E0,1.8031235E-1,1.2754445E0,1.579015E0,-4.988665E-1,-5.178502E-1,2.1305203E-2,-4.2114586E-2,-2.8408905E-2,-8.896768E-2,-3.767486E-2,4.6059486E-2,-2.47233E-3,-7.728219E-2,-4.594078E-3,7.896528E-2,-4.2822536E-2,4.466604E-2,-9.4259985E-2,-1.6842065E-2,5.3037245E-2,-7.13248E-2,1.1506245E-1,5.217732E-2],"split_indices":[0,2,2,2,5,5,3,0,0,0,5,3,2,0,0,5,0,3,0,0,0,3,0,2,0,0,0,0,0,3,0,0,0,2,2,3,3,2,3,0,0,0,0,0,0,0,0,0,0,0,0,0,0,0,0,0,0],"split_type":[0,0,0,0,0,0,0,0,0,0,0,0,0,0,0,0,0,0,0,0,0,0,0,0,0,0,0,0,0,0,0,0,0,0,0,0,0,0,0,0,0,0,0,0,0,0,0,0,0,0,0,0,0,0,0,0,0],"sum_hessian":[2.5728604E2,1.5424081E2,1.0304524E2,1.3126335E2,2.297746E1,8.5420135E1,1.7625105E1,1.2621194E2,5.0514164E0,1.7768837E1,5.208624E0,6.758658E1,1.7833555E1,1.6458199E1,1.1669067E0,2.3319101E0,2.7195063E0,1.6492996E1,1.2758399E0,3.6477737E0,1.56085E0,5.4540787E1,1.3045792E1,1.4463673E1,3.3698819E0,1.0387099E0,1.5419489E1,1.283696E0,1.0482141E0,1.2323066E1,4.16993E0,1.087683E0,2.5600908E0,4.4510418E1,1.0030368E1,7.3917723E0,5.65402E0,8.595162E0,5.8685107E0,1.0018287E0,2.3680532E0,8.816602E0,3.506464E0,1.8359511E0,2.333979E0,4.2939045E1,1.5713735E0,5.1915903E0,4.838778E0,3.1798215E0,4.211951E0,4.6397457E0,1.014274E0,6.856896E0,1.7382659E0,2.6883996E0,3.180111E0],"tree_param":{"num_deleted":"0","num_feature":"6","num_nodes":"57","size_leaf_vector":"1"}},{"base_weights":[-3.281521E-1,-8.1445915E-1,3.208209E-1,-9.9139E-2,-2.491532E-1,-1.2706845E-1,1.0532019E0,-3.6153597E-1,2.159887E-1,-8.1583835E-2,-8.2665384E-2,8.8788855E-1,1.3565712E0,-7.125311E-1,-2.617264E-1,9.261423E-2,-1.0643843E-1,2.0944498E-1,-1.7245504E-1,2.3887776E-1,1.0047412E0,1.4393006E-1,4.2283505E-2,-8.3738066E-2,-5.8347895E-3,3.0216737E-2,-3.2232928E-1,-6.828693E-2,2.8724748E-1,-1.178484E-1,6.145487E-1,2.966001E-1,-2.5814956E-1,-2.863481E-1,6.838792E-1,1.9277358E-2,1.0556219E0,-4.0223744E-2,2.0869674E-2,7.530066E-2,-2.0788925E-2,-3.554948E-2,2.7824676E-2,1.3918141E-2,8.9794315E-2,4.9302343E-2,-5.3658105E-2,4.1062734E-3,-3.956513E-2,-6.392156E-2,2.0615587E-2,9.4283216E-2,5.7413983E-3,6.277736E-2,1.1588031E-1],"categories":[],"categories_nodes":[],"categories_segments":[],"categories_sizes":[],"default_left":[0,0,0,0,0,0,0,0,0,0,0,0,0,0,0,0,0,0,0,0,0,0,0,0,0,0,0,0,0,0,0,0,0,0,0,0,0,0,0,0,0,0,0,0,0,0,0,0,0,0,0,0,0,0,0],"id":19,"left_children":[1,3,5,-1,7,9,11,13,15,-1,17,19,21,23,25,-1,27,29,31,33,35,-1,-1,-1,-1,-1,37,-1,39,41,43,45,47,49,51,-1,53,-1,-1,-1,-1,-1,-1,-1,-1,-1,-1,-1,-1,-1,-1,-1,-1,-1,-1],"loss_changes":[7.8550644E1,1.3964516E1,3.5225418E1,0E0,1.9184244E0,1.9900453E0,8.36853E-1,8.1995916E-1,1.8105634E0,0E0,1.7229484E0,1.9776039E0,3.5411453E-1,4.2322516E-1,9.15812E-1,0E0,1.5666147E0,2.137127E0,2.0759082E0,1.5452279E0,8.07354E-1,0E0,0E0,0E0,0E0,0E0,1.0220847E0,0E0,1.1463947E0,9.886825E-1,8.3418775E-1,1.598176E0,1.7685556E0,7.144712E-1,5.007651E-1,0E0,2.7912712E-1,0E0,0E0,0E0,0E0,0E0,0E0,0E0,0E0,0E0,0E0,0E0,0E0,0E0,0E0,0E0,0E0,0E0,0E0],"parents":[2147483647,0,0,1,1,2,2,4,4,5,5,6,6,7,7,8,8,10,10,11,11,12,12,13,13,14,14,16,16,17,17,18,18,19,19,20,20,26,26,28,28,29,29,30,30,31,31,32,32,33,33,34,34,36,36],"right_children":[2,4,6,-1,8,10,12,14,16,-1,18,20,22,24,26,-1,28,30,32,34,36,-1,-1,-1,-1,-1,38,-1,40,42,44,46,48,50,52,-1,54,-1,-1,-1,-1,-1,-1,-1,-1,-1,-1,-1,-1,-1,-1,-1,-1,-1,-1],"split_conditions":[9.92686E-1,9.889511E-1,9.70884E-1,-9.9139E-2,1.1235877E0,-1.5646656E0,1.7643405E0,-9.803631E-1,-1.0445676E0,-8.1583835E-2,1.1263751E0,-9.1967887E-1,1.9309862E0,1.0616297E0,-8.294541E-1,9.261423E-2,-2.565978E-1,3.2629296E-1,-1.0593312E0,1.3657767E0,1.0283912E0,1.4393006E-1,4.2283505E-2,-8.3738066E-2,-5.8347895E-3,3.0216737E-2,2.0642786E0,-6.828693E-2,7.522524E-2,2.0706193E-1,-2.446642E-1,7.133417E-1,-5.178502E-1,-1.5196282E-1,2.717084E-1,1.9277358E-2,-8.1364375E-1,-4.0223744E-2,2.0869674E-2,7.530066E-2,-2.0788925E-2,-3.554948E-2,2.7824676E-2,1.3918141E-2,8.9794315E-2,4.9302343E-2,-5.3658105E-2,4.1062734E-3,-3.956513E-2,-6.392156E-2,2.0615587E-2,9.4283216E-2,5.7413983E-3,6.277736E-2,1.1588031E-1],"split_indices":[0,1,1,0,5,5,1,0,0,0,0,3,0,3,0,0,0,3,5,0,0,0,0,0,0,0,1,0,0,1,1,3,3,5,5,0,5,0,0,0,0,0,0,0,0,0,0,0,0,0,0,0,0,0,0],"split_type":[0,0,0,0,0,0,0,0,0,0,0,0,0,0,0,0,0,0,0,0,0,0,0,0,0,0,0,0,0,0,0,0,0,0,0,0,0,0,0,0,0,0,0,0,0,0,0,0,0,0,0,0,0,0,0],"sum_hessian":[2.4706497E2,1.4108678E2,1.0597819E2,1.0688114E2,3.420563E1,6.6274414E1,3.9703777E1,2.772882E1,6.47681E0,2.9615824E0,6.331283E1,2.8241205E1,1.1462572E1,4.780074E0,2.2948748E1,1.4377413E0,5.0390687E0,1.4572353E1,4.874048E1,4.773422E0,2.3467783E1,1.0032266E1,1.4303066E0,3.7788484E0,1.0012257E0,1.840195E0,2.1108553E1,1.7468278E0,3.292241E0,8.452477E0,6.1198764E0,7.1489654E0,4.1591515E1,2.3528845E0,2.420537E0,1.66624E0,2.1801542E1,1.855843E1,2.5501223E0,1.4280835E0,1.8641574E0,5.346952E0,3.1055253E0,2.842677E0,3.277199E0,6.115495E0,1.0334705E0,1.331614E1,2.8275373E1,1.1972173E0,1.1556673E0,1.3553092E0,1.0652277E0,5.612616E0,1.6188927E1],"tree_param":{"num_deleted":"0","num_feature":"6","num_nodes":"55","size_leaf_vector":"1"}},{"base_weights":[-3.2792428E-1,-7.9422104E-1,2.7634174E-1,-9.785809E-1,1.7400256E-1,6.241708E-2,8.199462E-1,-9.946914E-2,-4.943049E-1,5.3228017E-2,8.120023E-1,-1.4818978E-1,8.592124E-1,8.7722903E-1,-1.8210698E-2,-1.0244554E-2,-7.236612E-2,-2.6276666E-1,3.0948022E-1,1.0796019E-1,1.607087E-2,-4.1505498E-1,-2.03812E-2,9.615266E-1,-6.485039E-3,-5.433763E-3,9.435963E-1,7.140967E-2,-7.966396E-2,6.9394857E-1,-1.4831587E-2,-2.057257E-1,-9.456476E-2,3.9872622E-1,-1.6645056E-1,1.0464747E0,6.6081597E-3,1.285097E0,6.968201E-1,-5.915278E-2,3.3525877E-2,7.1500563E-3,9.235337E-2,2.9339215E-2,-4.981958E-2,-5.4696616E-2,-2.3807033E-3,-7.8085284E-3,6.5434724E-2,-5.336624E-2,4.441553E-3,2.0561185E-2,1.1033865E-1,3.394809E-2,1.4125006E-1,-9.158945E-3,9.887147E-2],"categories":[],"categories_nodes":[],"categories_segments":[],"categories_sizes":[],"default_left":[0,0,0,0,0,0,0,0,0,0,0,0,0,0,0,0,0,0,0,0,0,0,0,0,0,0,0,0,0,0,0,0,0,0,0,0,0,0,0,0,0,0,0,0,0,0,0,0,0,0,0,0,0,0,0,0,0],"id":20,"left_children":[1,3,5,7,9,11,13,-1,15,17,19,21,23,25,-1,-1,-1,27,29,-1,-1,31,33,35,-1,-1,37,39,-1,41,43,45,-1,47,49,51,-1,53,55,-1,-1,-1,-1,-1,-1,-1,-1,-1,-1,-1,-1,-1,-1,-1,-1,-1,-1],"loss_changes":[6.566826E1,2.361921E1,1.1800453E1,3.7047577E-1,1.6412909E0,1.2581581E1,1.8070221E0,0E0,4.2428136E-1,1.6564234E0,4.207337E-1,2.0227706E0,1.5431795E0,1.7402229E0,0E0,0E0,0E0,1.7074025E0,1.4068567E0,0E0,0E0,1.9417226E0,2.595909E0,1.0082922E0,0E0,0E0,1.2582054E0,1.3540802E0,0E0,6.693356E-1,1.1971972E0,9.225207E-1,0E0,1.3885846E0,2.450915E0,3.890171E-1,0E0,6.693144E-1,4.0073757E0,0E0,0E0,0E0,0E0,0E0,0E0,0E0,0E0,0E0,0E0,0E0,0E0,0E0,0E0,0E0,0E0,0E0,0E0],"parents":[2147483647,0,0,1,1,2,2,3,3,4,4,5,5,6,6,8,8,9,9,10,10,11,11,12,12,13,13,17,17,18,18,21,21,22,22,23,23,26,26,27,27,29,29,30,30,31,31,33,33,34,34,35,35,37,37,38,38],"right_children":[2,4,6,8,10,12,14,-1,16,18,20,22,24,26,-1,-1,-1,28,30,-1,-1,32,34,36,-1,-1,38,40,-1,42,44,46,-1,48,50,52,-1,54,56,-1,-1,-1,-1,-1,-1,-1,-1,-1,-1,-1,-1,-1,-1,-1,-1,-1,-1],"split_conditions":[9.92686E-1,1.5960356E0,8.4346354E-1,1.3601991E0,1.7293204E0,1.4891243E0,2.270546E0,-9.946914E-2,-1.9979815E-1,-2.565978E-1,1.8644468E0,-3.4631258E-1,8.6737674E-1,-1.1958948E0,-1.8210698E-2,-1.0244554E-2,-7.236612E-2,-6.293756E-1,9.964064E-2,1.0796019E-1,1.607087E-2,-5.865611E-1,-1.7255226E-2,2.1542225E0,-6.485039E-3,-5.433763E-3,-4.6853402E-1,-1.444047E0,-7.966396E-2,5.25815E-2,1.0329651E-1,-6.4996505E-1,-9.456476E-2,2.89535E-2,-5.1606464E-1,1.0103091E0,6.6081597E-3,1.0036238E0,8.448695E-2,-5.915278E-2,3.3525877E-2,7.1500563E-3,9.235337E-2,2.9339215E-2,-4.981958E-2,-5.4696616E-2,-2.3807033E-3,-7.8085284E-3,6.5434724E-2,-5.336624E-2,4.441553E-3,2.0561185E-2,1.1033865E-1,3.394809E-2,1.4125006E-1,-9.158945E-3,9.887147E-2],"split_indices":[0,2,4,2,4,2,0,0,0,0,2,3,3,2,0,0,0,0,0,0,0,3,3,0,0,0,3,0,0,3,3,4,0,2,4,0,0,4,3,0,0,0,0,0,0,0,0,0,0,0,0,0,0,0,0,0,0],"split_type":[0,0,0,0,0,0,0,0,0,0,0,0,0,0,0,0,0,0,0,0,0,0,0,0,0,0,0,0,0,0,0,0,0,0,0,0,0,0,0,0,0,0,0,0,0,0,0,0,0,0,0,0,0,0,0,0,0],"sum_hessian":[2.3127957E2,1.3036548E2,1.00914085E2,1.09504074E2,2.0861414E1,7.3216156E1,2.7697931E1,1.0495843E2,4.5456457E0,1.845187E1,2.4095438E0,5.8553474E1,1.46626835E1,2.6318018E1,1.3799124E0,2.212395E0,2.3332508E0,8.251365E0,1.0200504E1,1.2417245E0,1.1678193E0,1.8233767E1,4.0319706E1,1.31645355E1,1.4981481E0,1.7623248E0,2.4555695E1,5.6075664E0,2.6437986E0,4.145866E0,6.0546384E0,1.4070431E1,4.163336E0,9.973547E0,3.0346159E1,1.1869818E1,1.2947176E0,8.535845E0,1.6019848E1,1.2428672E0,4.3646994E0,1.4705002E0,2.6753657E0,3.9371085E0,2.11753E0,4.1949506E0,9.875481E0,3.7231884E0,6.2503586E0,1.0511005E1,1.9835154E1,1.0448684E0,1.0824949E1,1.4486059E0,7.0872393E0,4.5139265E0,1.1505922E1],"tree_param":{"num_deleted":"0","num_feature":"6","num_nodes":"57","size_leaf_vector":"1"}},{"base_weights":[-3.4691614E-1,-8.289196E-1,2.3467363E-1,-9.908726E-1,-1.1596467E-1,6.2036626E-2,9.6783733E-1,-1.0001135E-1,-4.5143408E-1,-3.2598826E-1,4.9927154E-1,-1.7030972E-1,7.4979514E-1,3.200875E-3,1.0321207E0,-2.7110192E-3,-6.1333E-2,-2.9751412E-3,-5.541087E-1,-1.4708045E-2,6.6074586E-1,-4.2894036E-1,-2.5311295E-2,1.0655011E0,3.8376832E-1,1.2141482E0,4.882084E-1,-2.4579641E-1,5.4958414E-2,-1.990905E-3,-6.484517E-1,8.596691E-2,1.2578062E-2,3.3066466E-2,-5.056796E-1,1.5270779E-1,-3.159875E-1,1.2014238E0,-9.07071E-3,-1.9061972E-1,1.0149071E0,1.4225908E-1,6.41932E-1,1.2578179E-1,-1.44341E-1,-6.1021984E-2,2.67219E-2,-7.809003E-2,6.6503384E-3,-6.682854E-2,4.4008344E-3,-5.567634E-3,5.2571315E-2,-8.5429035E-2,-1.3488406E-2,7.0421465E-2,1.5155585E-1,1.1373826E-2,-7.037478E-2,2.5303066E-2,1.1964216E-1,8.5713945E-2,-8.041947E-3,4.6063438E-2,-6.657811E-2],"categories":[],"categories_nodes":[],"categories_segments":[],"categories_sizes":[],"default_left":[0,0,0,0,0,0,0,0,0,0,0,0,0,0,0,0,0,0,0,0,0,0,0,0,0,0,0,0,0,0,0,0,0,0,0,0,0,0,0,0,0,0,0,0,0,0,0,0,0,0,0,0,0,0,0,0,0,0,0,0,0,0,0,0,0],"id":21,"left_children":[1,3,5,7,9,11,13,-1,15,17,19,21,23,-1,25,-1,-1,27,29,-1,31,33,35,37,39,41,43,45,-1,-1,47,-1,-1,-1,49,51,53,55,-1,57,59,-1,61,-1,63,-1,-1,-1,-1,-1,-1,-1,-1,-1,-1,-1,-1,-1,-1,-1,-1,-1,-1,-1,-1],"loss_changes":[6.254817E1,1.39544525E1,1.2797244E1,4.2816162E-2,3.2235699E0,1.3437202E1,1.127533E0,0E0,2.2331858E-1,1.3441851E0,7.6759267E-1,2.3544073E0,2.04292E0,0E0,1.1913414E0,0E0,0E0,1.284315E0,5.263083E-1,0E0,4.5817327E-1,1.484312E0,2.194514E0,1.8107882E0,4.322044E0,6.169605E-1,3.1954193E0,1.4046954E0,0E0,0E0,9.100189E-1,0E0,0E0,0E0,1.8990417E0,2.0810974E0,1.4523365E0,4.5713615E-1,0E0,1.1426934E0,4.6953917E-1,0E0,8.8472104E-1,0E0,1.6616153E0,0E0,0E0,0E0,0E0,0E0,0E0,0E0,0E0,0E0,0E0,0E0,0E0,0E0,0E0,0E0,0E0,0E0,0E0,0E0,0E0],"parents":[2147483647,0,0,1,1,2,2,3,3,4,4,5,5,6,6,8,8,9,9,10,10,11,11,12,12,14,14,17,17,18,18,20,20,21,21,22,22,23,23,24,24,25,25,26,26,27,27,30,30,34,34,35,35,36,36,37,37,39,39,40,40,42,42,44,44],"right_children":[2,4,6,8,10,12,14,-1,16,18,20,22,24,-1,26,-1,-1,28,30,-1,32,34,36,38,40,42,44,46,-1,-1,48,-1,-1,-1,50,52,54,56,-1,58,60,-1,62,-1,64,-1,-1,-1,-1,-1,-1,-1,-1,-1,-1,-1,-1,-1,-1,-1,-1,-1,-1,-1,-1],"split_conditions":[9.92686E-1,1.4891243E0,1.4891243E0,1.3601991E0,1.1434541E0,9.917185E-1,1.0103091E0,-1.0001135E-1,-2.4499862E-1,-3.6859232E-1,-7.517362E-1,-3.4631258E-1,1.2843546E0,3.200875E-3,1.6302481E0,-2.7110192E-3,-6.1333E-2,6.772267E-1,-1.2522519E0,-1.4708045E-2,1.8644468E0,-1.7004174E0,1.4980093E0,1.8038567E0,3.2205597E-1,2.0328114E0,-5.473033E-1,-1.3914849E-1,5.4958414E-2,-1.990905E-3,8.166995E-1,8.596691E-2,1.2578062E-2,3.3066466E-2,4.7706544E-1,3.239127E-1,1.6302481E0,1.1305418E0,-9.07071E-3,-3.726871E-1,1.562758E0,1.4225908E-1,1.4116427E0,1.2578179E-1,-9.7282685E-2,-6.1021984E-2,2.67219E-2,-7.809003E-2,6.6503384E-3,-6.682854E-2,4.4008344E-3,-5.567634E-3,5.2571315E-2,-8.5429035E-2,-1.3488406E-2,7.0421465E-2,1.5155585E-1,1.1373826E-2,-7.037478E-2,2.5303066E-2,1.1964216E-1,8.5713945E-2,-8.041947E-3,4.6063438E-2,-6.657811E-2],"split_indices":[0,2,2,2,4,4,0,0,0,4,0,3,4,0,0,0,0,3,0,0,2,4,0,0,2,2,3,0,0,0,4,0,0,0,4,4,0,4,0,2,4,0,0,0,4,0,0,0,0,0,0,0,0,0,0,0,0,0,0,0,0,0,0,0,0],"split_type":[0,0,0,0,0,0,0,0,0,0,0,0,0,0,0,0,0,0,0,0,0,0,0,0,0,0,0,0,0,0,0,0,0,0,0,0,0,0,0,0,0,0,0,0,0,0,0,0,0,0,0,0,0,0,0,0,0,0,0,0,0,0,0,0,0],"sum_hessian":[2.2143079E2,1.2084935E2,1.00581436E2,9.816144E1,2.2687914E1,8.228947E1,1.829197E1,9.566859E1,2.4928515E0,1.7264471E1,5.423443E0,6.207198E1,2.0217487E1,1.2720201E0,1.7019949E1,1.0108643E0,1.4819874E0,7.5652695E0,9.699202E0,1.1018962E0,4.3215466E0,2.159507E1,4.047691E1,9.828878E0,1.038861E1,1.1828978E1,5.1909723E0,5.6413536E0,1.9239161E0,1.6376046E0,8.061598E0,2.7077324E0,1.6138141E0,1.6778554E0,1.9917215E1,2.5397402E1,1.5079507E1,8.75996E0,1.0689182E0,5.8042455E0,4.584364E0,7.5812345E0,4.247743E0,1.8958464E0,3.295126E0,3.1875691E0,2.4537845E0,6.7237554E0,1.3378419E0,1.5203918E1,4.7132964E0,1.6840166E1,8.557236E0,2.8603642E0,1.2219143E1,4.646806E0,4.113154E0,4.131827E0,1.6724184E0,1.3426819E0,3.2416823E0,3.1289508E0,1.1187922E0,1.5793607E0,1.7157651E0],"tree_param":{"num_deleted":"0","num_feature":"6","num_nodes":"65","size_leaf_vector":"1"}},{"base_weights":[-3.1821075E-1,-7.808999E-1,2.1736023E-1,-8.6096245E-1,-4.2485872E-1,4.6125267E-2,7.109219E-1,-8.751574E-1,-3.2295418E-1,-6.6756415E-1,4.4447252E-1,-3.1806245E-2,3.580825E-1,9.741063E-1,4.9908802E-1,-8.9551866E-1,-4.703297E-1,-5.250426E-2,-7.235326E-3,-1.8456283E-1,-7.446841E-1,1.0101393E0,-6.293761E-2,2.9790154E-2,-9.34208E-2,-3.7948176E-1,5.051794E-1,1.1116259E0,-6.6253776E-3,-2.4264163E-1,7.455945E-1,-9.0995365E-1,-4.3046448E-1,1.2942423E-2,-6.3934225E-1,9.878966E-3,-3.8381144E-2,-7.745966E-2,-1.7332286E-2,4.291636E-4,1.474093E-1,1.2895696E-1,-4.6730405E-1,-5.8312666E-2,8.8844105E-4,5.6342244E-1,1.3047233E-1,1.198561E0,2.0524373E-2,2.4051446E-2,-5.0181985E-2,4.020557E-1,1.0480126E0,-2.9149598E-2,-9.191565E-2,1.5384405E-2,-7.037682E-2,-4.3975003E-3,-7.739095E-2,-2.737268E-5,5.1633418E-2,-7.640345E-2,3.984039E-2,6.7087345E-2,2.301018E-2,-1.1713239E-2,3.140098E-2,5.131644E-2,1.5220907E-1,5.9687354E-2,-3.168798E-2,1.51959155E-2,1.3758631E-1],"categories":[],"categories_nodes":[],"categories_segments":[],"categories_sizes":[],"default_left":[0,0,0,0,0,0,0,0,0,0,0,0,0,0,0,0,0,0,0,0,0,0,0,0,0,0,0,0,0,0,0,0,0,0,0,0,0,0,0,0,0,0,0,0,0,0,0,0,0,0,0,0,0,0,0,0,0,0,0,0,0,0,0,0,0,0,0,0,0,0,0,0,0],"id":22,"left_children":[1,3,5,7,9,11,13,15,17,19,21,23,25,27,29,31,33,-1,-1,35,37,39,-1,41,-1,43,45,47,-1,49,51,53,55,-1,57,-1,-1,-1,-1,-1,-1,59,61,-1,-1,63,65,67,-1,-1,-1,69,71,-1,-1,-1,-1,-1,-1,-1,-1,-1,-1,-1,-1,-1,-1,-1,-1,-1,-1,-1,-1],"loss_changes":[5.246233E1,2.8677063E0,8.299661E0,4.171753E-1,5.1071157E0,1.816895E0,9.2575645E-1,3.0989838E-1,1.6156778E-1,5.413399E-1,4.0230083E0,3.3818178E0,1.8110782E0,1.5391302E0,3.121397E0,1.6777039E-1,7.2677684E-1,0E0,0E0,2.5462887E-1,1.2867546E-1,1.877243E0,0E0,2.8924553E0,0E0,2.4662775E-1,2.074337E-1,4.71323E-1,0E0,7.1751326E-1,8.581948E-1,1.8701935E-1,8.119955E-1,0E0,3.7657094E-1,0E0,0E0,0E0,0E0,0E0,0E0,2.4372134E0,2.8145545E0,0E0,0E0,2.3387241E-1,1.7462045E-1,1.0150833E0,0E0,0E0,0E0,1.2239789E0,1.5323071E0,0E0,0E0,0E0,0E0,0E0,0E0,0E0,0E0,0E0,0E0,0E0,0E0,0E0,0E0,0E0,0E0,0E0,0E0,0E0,0E0],"parents":[2147483647,0,0,1,1,2,2,3,3,4,4,5,5,6,6,7,7,8,8,9,9,10,10,11,11,12,12,13,13,14,14,15,15,16,16,19,19,20,20,21,21,23,23,25,25,26,26,27,27,29,29,30,30,31,31,32,32,34,34,41,41,42,42,45,45,46,46,47,47,51,51,52,52],"right_children":[2,4,6,8,10,12,14,16,18,20,22,24,26,28,30,32,34,-1,-1,36,38,40,-1,42,-1,44,46,48,-1,50,52,54,56,-1,58,-1,-1,-1,-1,-1,-1,60,62,-1,-1,64,66,68,-1,-1,-1,70,72,-1,-1,-1,-1,-1,-1,-1,-1,-1,-1,-1,-1,-1,-1,-1,-1,-1,-1,-1,-1],"split_conditions":[9.92686E-1,1.1235877E0,1.0036238E0,2.0490994E0,9.917185E-1,1.029361E0,-4.4976145E-1,1.579015E0,-6.084389E-1,1.2035059E0,1.5071253E0,7.7425086E-1,-9.1967887E-1,2.1190886E0,8.448695E-2,8.6208594E-1,1.6569889E0,-5.250426E-2,-7.235326E-3,-2.0961195E-1,1.549059E0,-8.887837E-2,-6.293761E-2,8.6737674E-1,-9.34208E-2,-2.626163E-1,4.27279E-1,1.3779998E0,-6.6253776E-3,1.1694272E0,3.526736E-1,-1.7046096E0,-8.1364375E-1,1.2942423E-2,-1.235221E0,9.878966E-3,-3.8381144E-2,-7.745966E-2,-1.7332286E-2,4.291636E-4,1.474093E-1,3.1723154E-1,1.6226999E0,-5.8312666E-2,8.8844105E-4,1.3657852E0,5.7872856E-1,-8.89645E-1,2.0524373E-2,2.4051446E-2,-5.0181985E-2,1.310663E-1,6.772267E-1,-2.9149598E-2,-9.191565E-2,1.5384405E-2,-7.037682E-2,-4.3975003E-3,-7.739095E-2,-2.737268E-5,5.1633418E-2,-7.640345E-2,3.984039E-2,6.7087345E-2,2.301018E-2,-1.1713239E-2,3.140098E-2,5.131644E-2,1.5220907E-1,5.9687354E-2,-3.168798E-2,1.51959155E-2,1.3758631E-1],"split_indices":[0,5,4,4,4,5,3,3,5,5,5,5,3,4,3,0,3,0,0,0,3,3,0,3,0,4,4,5,0,0,5,5,5,0,5,0,0,0,0,0,0,3,3,0,0,5,3,3,0,0,0,5,3,0,0,0,0,0,0,0,0,0,0,0,0,0,0,0,0,0,0,0,0],"split_type":[0,0,0,0,0,0,0,0,0,0,0,0,0,0,0,0,0,0,0,0,0,0,0,0,0,0,0,0,0,0,0,0,0,0,0,0,0,0,0,0,0,0,0,0,0,0,0,0,0,0,0,0,0,0,0,0,0,0,0,0,0,0,0,0,0,0,0,0,0,0,0,0,0],"sum_hessian":[2.10025E2,1.1243358E2,9.759141E1,9.063454E1,2.179904E1,7.326611E1,2.4325296E1,8.769413E1,2.9404087E0,1.722277E1,4.5762687E0,5.934012E1,1.3925993E1,9.243114E0,1.5082181E1,8.2340614E1,5.3535166E0,1.0215114E0,1.9188972E0,2.8384964E0,1.4384275E1,3.0362194E0,1.5400491E0,5.6453674E1,2.8864434E0,2.0528598E0,1.1873134E1,8.10346E0,1.1396539E0,3.7660232E0,1.1316158E1,7.89339E1,3.4067168E0,1.2284613E0,4.1250553E0,1.3800745E0,1.458422E0,1.3330669E1,1.0536053E0,1.2769822E0,1.7592373E0,4.7682026E1,8.771651E0,1.0177188E0,1.035141E0,9.840005E0,2.0331285E0,7.1001015E0,1.0033591E0,1.3400095E0,2.4260137E0,6.3884835E0,4.927675E0,1.6364177E0,7.729748E1,1.2249453E0,2.1817715E0,1.0050756E0,3.1199799E0,3.650357E1,1.1178454E1,6.620017E0,2.151634E0,6.675393E0,3.1646118E0,1.0195252E0,1.0136033E0,3.106062E0,3.9940395E0,5.1600027E0,1.2284809E0,1.7120217E0,3.215653E0],"tree_param":{"num_deleted":"0","num_feature":"6","num_nodes":"73","size_leaf_vector":"1"}},{"base_weights":[-3.1964174E-1,-7.320962E-1,1.3453409E-1,-9.6077275E-1,2.1059778E-1,-2.4597712E-2,8.066505E-1,-9.8092325E-2,-4.7740272E-1,2.2903707E-2,6.7811906E-1,-2.140352E-1,4.2078015E-1,-2.3290707E-2,8.793598E-1,-1.2942135E-1,-6.96589E-2,-4.2846075E-1,3.47082E-1,8.421636E-1,8.9988665E-4,-2.9946634E-1,9.773264E-2,5.2677625E-1,-2.3561238E-1,9.6512157E-1,-8.786821E-3,-5.5264425E-2,3.496946E-2,3.307951E-2,-7.258702E-1,5.3005755E-1,-2.3911057E-1,1.03343956E-1,1.4048375E-2,-4.9977607E-1,-1.2817043E-1,3.0658644E-1,-3.3029673E-1,7.664798E-1,2.5852713E-1,-5.8766365E-2,2.4411684E-2,6.5756005E-1,1.1731765E0,-6.4193294E-3,-8.592758E-2,1.09061925E-2,6.698442E-2,-6.1060656E-2,2.6633486E-2,-3.673397E-2,-7.9518415E-2,-2.2388075E-2,6.573927E-2,4.4142365E-2,-1.201687E-2,3.2550335E-2,-6.0006347E-2,9.2161365E-2,-3.3225004E-2,-1.0785478E-3,1.0699786E-1,1.3233107E-1,1.8222306E-3,1.24487124E-1,3.419353E-2],"categories":[],"categories_nodes":[],"categories_segments":[],"categories_sizes":[],"default_left":[0,0,0,0,0,0,0,0,0,0,0,0,0,0,0,0,0,0,0,0,0,0,0,0,0,0,0,0,0,0,0,0,0,0,0,0,0,0,0,0,0,0,0,0,0,0,0,0,0,0,0,0,0,0,0,0,0,0,0,0,0,0,0,0,0,0,0],"id":23,"left_children":[1,3,5,7,9,11,13,-1,15,17,19,21,23,-1,25,27,-1,29,31,33,-1,35,37,39,41,43,-1,-1,-1,-1,45,47,49,-1,-1,51,53,55,57,59,61,-1,-1,63,65,-1,-1,-1,-1,-1,-1,-1,-1,-1,-1,-1,-1,-1,-1,-1,-1,-1,-1,-1,-1,-1,-1],"loss_changes":[3.8342316E1,2.330029E1,1.0502331E1,3.7334442E-1,1.8919678E0,6.8580117E0,1.6252136E0,0E0,3.221898E-1,2.5697055E0,6.7209435E-1,1.5458863E0,1.8130345E0,0E0,1.5590935E0,8.6594427E-1,0E0,1.9028932E0,1.2188498E0,5.2080035E-1,0E0,1.4779472E0,1.2635098E0,1.1655807E0,8.301484E-1,2.7856636E-1,0E0,0E0,0E0,0E0,4.3952322E-1,4.0190148E-1,7.4683684E-1,0E0,0E0,5.048623E-1,2.0696573E0,5.856747E-1,1.0347517E0,2.1285582E0,2.5284972E0,0E0,0E0,3.7625425E0,8.16412E-2,0E0,0E0,0E0,0E0,0E0,0E0,0E0,0E0,0E0,0E0,0E0,0E0,0E0,0E0,0E0,0E0,0E0,0E0,0E0,0E0,0E0,0E0],"parents":[2147483647,0,0,1,1,2,2,3,3,4,4,5,5,6,6,8,8,9,9,10,10,11,11,12,12,14,14,15,15,17,17,18,18,19,19,21,21,22,22,23,23,24,24,25,25,30,30,31,31,32,32,35,35,36,36,37,37,38,38,39,39,40,40,43,43,44,44],"right_children":[2,4,6,8,10,12,14,-1,16,18,20,22,24,-1,26,28,-1,30,32,34,-1,36,38,40,42,44,-1,-1,-1,-1,46,48,50,-1,-1,52,54,56,58,60,62,-1,-1,64,66,-1,-1,-1,-1,-1,-1,-1,-1,-1,-1,-1,-1,-1,-1,-1,-1,-1,-1,-1,-1,-1,-1],"split_conditions":[9.92686E-1,1.5960356E0,1.4624181E0,1.3601991E0,1.1101414E0,9.0004456E-1,1.0103091E0,-9.8092325E-2,-1.9979815E-1,-2.565978E-1,2.2666818E-1,9.8957634E-1,7.911056E-1,-2.3290707E-2,2.270546E0,-8.565514E-2,-6.96589E-2,-1.2522519E0,5.367855E-1,1.8644468E0,8.9988665E-4,1.8411243E-3,1.4980093E0,1.1981208E0,1.3191391E0,-1.9696437E-2,-8.786821E-3,-5.5264425E-2,3.496946E-2,3.307951E-2,-9.5386857E-1,-2.559612E-1,7.736436E-1,1.03343956E-1,1.4048375E-2,-3.0933526E-1,2.439918E0,5.8196384E-1,1.0548371E0,1.8651142E0,2.008964E0,-5.8766365E-2,2.4411684E-2,-1.0136138E0,2.579016E0,-6.4193294E-3,-8.592758E-2,1.09061925E-2,6.698442E-2,-6.1060656E-2,2.6633486E-2,-3.673397E-2,-7.9518415E-2,-2.2388075E-2,6.573927E-2,4.4142365E-2,-1.201687E-2,3.2550335E-2,-6.0006347E-2,9.2161365E-2,-3.3225004E-2,-1.0785478E-3,1.0699786E-1,1.3233107E-1,1.8222306E-3,1.24487124E-1,3.419353E-2],"split_indices":[0,2,2,2,4,4,0,0,0,0,0,5,2,0,0,5,0,0,0,2,0,2,0,4,0,5,0,0,0,0,4,5,0,0,0,2,0,2,5,0,0,0,0,5,2,0,0,0,0,0,0,0,0,0,0,0,0,0,0,0,0,0,0,0,0,0,0],"split_type":[0,0,0,0,0,0,0,0,0,0,0,0,0,0,0,0,0,0,0,0,0,0,0,0,0,0,0,0,0,0,0,0,0,0,0,0,0,0,0,0,0,0,0,0,0,0,0,0,0,0,0,0,0,0,0,0,0,0,0,0,0,0,0,0,0,0,0],"sum_hessian":[2.0315558E2,1.06147255E2,9.7008316E1,8.5409615E1,2.0737644E1,7.921629E1,1.7792027E1,8.100344E1,4.40617E0,1.5545599E1,5.1920457E0,5.59415E1,2.3274788E1,1.019043E0,1.6772984E1,2.317444E0,2.0887258E0,6.363625E0,9.181974E0,3.9620726E0,1.2299732E0,4.3940353E1,1.2001151E1,2.020887E1,3.0659168E0,1.5408892E1,1.3640913E0,1.1490097E0,1.1684344E0,1.7595131E0,4.6041117E0,7.0706778E0,2.1112962E0,2.7418456E0,1.220227E0,1.9370865E1,2.4569489E1,8.256284E0,3.744868E0,9.691416E0,1.0517455E1,1.6385037E0,1.4274132E0,7.8963947E0,7.512497E0,1.021043E0,3.5830688E0,2.2062664E0,4.8644114E0,1.0969762E0,1.0143199E0,1.4923782E1,4.447082E0,2.2538483E1,2.0310051E0,6.247847E0,2.0084364E0,1.0312645E0,2.7136035E0,8.633606E0,1.0578104E0,8.637472E0,1.8799821E0,3.3442104E0,4.5521846E0,6.457897E0,1.0545998E0],"tree_param":{"num_deleted":"0","num_feature":"6","num_nodes":"67","size_leaf_vector":"1"}},{"base_weights":[-2.6613536E-1,-6.39641E-1,5.438577E-1,-9.672875E-2,-2.599762E-1,-7.024293E-2,9.7173506E-1,-5.8932626E-1,5.30762E-1,-8.977698E-1,1.1184665E0,7.990324E-1,1.2572005E0,-8.1990707E-1,-4.3317106E-1,2.6008862E-1,8.4571683E-1,-9.528326E-2,-1.8246217E-2,1.2039084E0,1.797435E-2,6.2505686E-1,1.2431365E-1,7.022416E-1,1.4036633E-1,-8.9184606E-1,-2.3101011E-1,8.039462E-2,-5.494308E-1,8.134373E-1,-2.302644E-3,3.1971434E-1,1.06336415E-1,5.534189E-1,1.4618343E-1,1.02780744E-1,8.090327E-1,8.947353E-2,2.0736901E-2,-6.544014E-3,-9.464858E-2,-6.566143E-2,3.5683397E-2,-6.5940216E-2,-5.9484197E-3,1.800096E-2,9.8839834E-2,-3.8235977E-2,3.2316357E-2,8.421617E-2,-2.497164E-2,1.2930539E-1,-3.94613E-2,5.85674E-2,-5.8838338E-2,9.97156E-2,-1.681765E-2],"categories":[],"categories_nodes":[],"categories_segments":[],"categories_sizes":[],"default_left":[0,0,0,0,0,0,0,0,0,0,0,0,0,0,0,0,0,0,0,0,0,0,0,0,0,0,0,0,0,0,0,0,0,0,0,0,0,0,0,0,0,0,0,0,0,0,0,0,0,0,0,0,0,0,0,0,0],"id":24,"left_children":[1,3,5,-1,7,9,11,13,15,17,19,21,23,25,27,29,31,-1,-1,33,-1,35,-1,37,-1,39,41,-1,43,45,47,49,-1,51,-1,53,55,-1,-1,-1,-1,-1,-1,-1,-1,-1,-1,-1,-1,-1,-1,-1,-1,-1,-1,-1,-1],"loss_changes":[6.025892E1,1.6665321E1,1.663192E1,0E0,1.7074743E1,2.738488E1,8.303795E-1,1.2979422E0,1.4382606E0,4.7074413E-1,7.0215225E-1,1.2266865E0,1.2861252E-2,5.318785E-1,4.6836686E0,1.7304298E0,6.3841534E-1,0E0,0E0,9.226942E-1,0E0,1.9005632E0,0E0,2.4946165E-1,0E0,6.231556E-1,1.0463394E0,0E0,1.4453831E0,2.4678731E-1,1.2458463E0,1.3798131E0,0E0,3.6935215E0,0E0,2.5218809E0,2.9476032E0,0E0,0E0,0E0,0E0,0E0,0E0,0E0,0E0,0E0,0E0,0E0,0E0,0E0,0E0,0E0,0E0,0E0,0E0,0E0,0E0],"parents":[2147483647,0,0,1,1,2,2,4,4,5,5,6,6,7,7,8,8,9,9,10,10,11,11,12,12,13,13,14,14,15,15,16,16,19,19,21,21,23,23,25,25,26,26,28,28,29,29,30,30,31,31,33,33,35,35,36,36],"right_children":[2,4,6,-1,8,10,12,14,16,18,20,22,24,26,28,30,32,-1,-1,34,-1,36,-1,38,-1,40,42,-1,44,46,48,50,-1,52,-1,54,56,-1,-1,-1,-1,-1,-1,-1,-1,-1,-1,-1,-1,-1,-1,-1,-1,-1,-1,-1,-1],"split_conditions":[9.889511E-1,9.92686E-1,9.92686E-1,-9.672875E-2,1.158115E0,1.3601991E0,1.7643405E0,-3.4787962E-1,1.8644468E0,9.9791396E-1,5.367855E-1,1.0133076E0,-8.548243E-1,1.341356E0,-2.86794E-1,-1.0136138E0,-7.830851E-3,-9.528326E-2,-1.8246217E-2,-3.6592567E-1,1.797435E-2,1.1866621E0,1.2431365E-1,2.2706525E0,1.4036633E-1,-1.6208526E0,-4.9337167E-2,8.039462E-2,1.0820582E0,1.5207975E0,1.9911893E-1,2.0328114E0,1.06336415E-1,-9.6947926E-1,1.4618343E-1,1.0898957E0,5.774217E-1,8.947353E-2,2.0736901E-2,-6.544014E-3,-9.464858E-2,-6.566143E-2,3.5683397E-2,-6.5940216E-2,-5.9484197E-3,1.800096E-2,9.8839834E-2,-3.8235977E-2,3.2316357E-2,8.421617E-2,-2.497164E-2,1.2930539E-1,-3.94613E-2,5.85674E-2,-5.8838338E-2,9.97156E-2,-1.681765E-2],"split_indices":[1,0,0,0,2,2,1,1,2,2,0,5,5,5,1,5,5,0,0,0,0,0,0,1,0,5,2,0,5,2,5,2,0,0,0,0,5,0,0,0,0,0,0,0,0,0,0,0,0,0,0,0,0,0,0,0,0],"split_type":[0,0,0,0,0,0,0,0,0,0,0,0,0,0,0,0,0,0,0,0,0,0,0,0,0,0,0,0,0,0,0,0,0,0,0,0,0,0,0,0,0,0,0,0,0,0,0,0,0,0,0,0,0,0,0,0,0],"sum_hessian":[1.9702885E2,1.3499158E2,6.2037277E1,7.162889E1,6.336268E1,2.5818186E1,3.621909E1,4.4911377E1,1.8451303E1,1.5365888E1,1.0452299E1,2.4933632E1,1.1285459E1,1.6417898E1,2.8493477E1,1.0905162E1,7.5461407E0,1.3959274E1,1.4066131E0,9.321377E0,1.1309222E0,1.9645185E1,5.2884455E0,3.5664768E0,7.7189817E0,1.4172202E1,2.2456958E0,1.9395616E0,2.6553917E1,2.8322425E0,8.07292E0,2.931163E0,4.614978E0,3.5397558E0,5.7816205E0,5.523519E0,1.4121667E1,1.9859701E0,1.5805067E0,1.0152078E0,1.3156995E1,1.2347436E0,1.0109522E0,2.1403837E1,5.1500797E0,1.0520961E0,1.7801465E0,3.6434925E0,4.429427E0,1.2788638E0,1.6522992E0,1.7839892E0,1.7557667E0,3.3415303E0,2.1819887E0,1.1824845E1,2.2968216E0],"tree_param":{"num_deleted":"0","num_feature":"6","num_nodes":"57","size_leaf_vector":"1"}},{"base_weights":[-2.302454E-1,-5.9379876E-1,5.0009483E-1,-9.596841E-2,-1.938914E-1,-1.16478086E-1,8.7394017E-1,-5.1540625E-1,7.3357767E-1,-7.83489E-1,1.0792307E0,9.629024E-1,5.0678265E-1,-5.9532404E-1,2.3454954E-1,8.833648E-1,2.8494203E-1,-9.4278626E-2,-8.782987E-2,1.23945415E-1,1.414113E-2,3.5495633E-1,1.0213051E0,8.372682E-1,-1.572554E-1,-8.066096E-1,-4.1694683E-1,6.0719606E-2,-1.8990223E-1,9.9037516E-1,2.253973E-2,1.0286204E-1,-3.2446867E-1,-6.345633E-2,4.5964766E-2,-4.3712676E-2,8.1973515E-2,7.8903997E-1,1.2097261E-1,1.763109E-2,1.0238644E0,-6.856007E-2,2.6329447E-2,-8.6475745E-2,-1.4503108E-2,3.623901E-2,-5.125748E-2,-5.9386786E-2,3.4410503E-2,2.999298E-2,1.03873275E-1,8.556858E-4,-5.562526E-2,9.717216E-2,2.8894736E-2,2.6428455E-2,1.1476965E-1],"categories":[],"categories_nodes":[],"categories_segments":[],"categories_sizes":[],"default_left":[0,0,0,0,0,0,0,0,0,0,0,0,0,0,0,0,0,0,0,0,0,0,0,0,0,0,0,0,0,0,0,0,0,0,0,0,0,0,0,0,0,0,0,0,0,0,0,0,0,0,0,0,0,0,0,0,0],"id":25,"left_children":[1,3,5,-1,7,9,11,13,15,17,19,21,23,25,27,29,31,-1,33,-1,-1,35,37,39,41,43,45,-1,47,49,-1,-1,51,-1,-1,-1,-1,53,-1,-1,55,-1,-1,-1,-1,-1,-1,-1,-1,-1,-1,-1,-1,-1,-1,-1,-1],"loss_changes":[5.0590137E1,1.838501E1,1.4737511E1,0E0,1.883465E1,2.0664099E1,8.069649E-1,2.9295197E0,8.4670925E-1,1.7490473E0,1.224967E0,7.311249E-1,2.2918885E0,1.2597446E0,9.3780357E-1,6.0605717E-1,2.8569756E0,0E0,1.5436671E0,0E0,0E0,1.9164385E0,2.520218E-1,6.495857E-1,1.0943954E0,5.791912E-1,2.05134E0,0E0,8.9310664E-1,1.6854286E-2,0E0,0E0,2.9963952E-1,0E0,0E0,0E0,0E0,1.1100283E0,0E0,0E0,1.7082119E-1,0E0,0E0,0E0,0E0,0E0,0E0,0E0,0E0,0E0,0E0,0E0,0E0,0E0,0E0,0E0,0E0],"parents":[2147483647,0,0,1,1,2,2,4,4,5,5,6,6,7,7,8,8,9,9,10,10,11,11,12,12,13,13,14,14,15,15,16,16,18,18,21,21,22,22,23,23,24,24,25,25,26,26,28,28,29,29,32,32,37,37,40,40],"right_children":[2,4,6,-1,8,10,12,14,16,18,20,22,24,26,28,30,32,-1,34,-1,-1,36,38,40,42,44,46,-1,48,50,-1,-1,52,-1,-1,-1,-1,54,-1,-1,56,-1,-1,-1,-1,-1,-1,-1,-1,-1,-1,-1,-1,-1,-1,-1,-1],"split_conditions":[9.70884E-1,9.92686E-1,8.372432E-1,-9.596841E-2,1.4891243E0,1.6536188E0,7.860227E-1,1.3296065E0,1.6302481E0,9.9791396E-1,2.802303E-1,1.0283912E0,1.4689298E0,1.3443242E0,1.5231161E0,8.6737674E-1,-5.09783E-1,-9.4278626E-2,-8.080573E-2,1.23945415E-1,1.414113E-2,3.421637E-1,-2.2959268E-1,1.1094327E0,1.3057191E0,1.1788895E0,1.3882524E0,6.0719606E-2,1.5652119E0,-1.4057975E0,2.253973E-2,1.0286204E-1,-4.2112896E-1,-6.345633E-2,4.5964766E-2,-4.3712676E-2,8.1973515E-2,-5.0181067E-1,1.2097261E-1,1.763109E-2,-7.8419125E-1,-6.856007E-2,2.6329447E-2,-8.6475745E-2,-1.4503108E-2,3.623901E-2,-5.125748E-2,-5.9386786E-2,3.4410503E-2,2.999298E-2,1.03873275E-1,8.556858E-4,-5.562526E-2,9.717216E-2,2.8894736E-2,2.6428455E-2,1.1476965E-1],"split_indices":[1,0,0,0,2,2,3,3,0,2,0,0,0,0,3,3,3,0,3,0,0,2,3,0,1,2,0,0,0,3,0,0,1,0,0,0,0,3,0,0,2,0,0,0,0,0,0,0,0,0,0,0,0,0,0,0,0],"split_type":[0,0,0,0,0,0,0,0,0,0,0,0,0,0,0,0,0,0,0,0,0,0,0,0,0,0,0,0,0,0,0,0,0,0,0,0,0,0,0,0,0,0,0,0,0,0,0,0,0,0,0,0,0,0,0,0,0],"sum_hessian":[1.8841557E2,1.2592085E2,6.2494717E1,6.502661E1,6.0894245E1,2.3849241E1,3.8645477E1,4.55487E1,1.5345547E1,1.5530499E1,8.318742E0,2.980189E1,8.843588E0,4.1348637E1,4.200059E0,1.077805E1,4.5674963E0,1.2347773E1,3.1827269E0,6.8301916E0,1.4885502E0,3.232346E0,2.6569544E1,5.7306323E0,3.1129553E0,1.7316055E1,2.4032581E1,2.0072536E0,2.1928055E0,8.835809E0,1.942241E0,1.7473142E0,2.8201823E0,1.512858E0,1.6698688E0,1.2172999E0,2.0150461E0,1.4223715E1,1.2345829E1,1.6898304E0,4.0408015E0,1.1003345E0,2.012621E0,1.5634764E1,1.6812918E0,2.3217216E0,2.1710861E1,1.1845902E0,1.0082153E0,1.04976E0,7.7860494E0,1.5525589E0,1.2676234E0,9.727294E0,4.496421E0,1.0057564E0,3.0350451E0],"tree_param":{"num_deleted":"0","num_feature":"6","num_nodes":"57","size_leaf_vector":"1"}},{"base_weights":[-2.307178E-1,-5.74951E-1,4.7008297E-1,-9.5237416E-1,-1.8579148E-1,-5.0347697E-2,7.938184E-1,-9.9685006E-2,-6.584522E-1,-4.5852503E-1,7.2856396E-1,-7.9376465E-1,8.6068696E-1,4.0686005E-1,8.9798915E-1,-9.0335675E-2,4.325357E-2,-5.645366E-1,1.9213198E-2,-4.1553355E-3,8.098643E-1,-9.3012825E-2,6.274325E-3,-8.202291E-3,1.0397761E0,6.67365E-1,-6.1084658E-2,2.7306455E-1,9.560442E-1,-7.8870296E-1,-4.241659E-1,-6.259104E-2,1.8716213E-1,6.1095154E-1,1.1186633E-1,3.3697903E-2,1.1225262E0,-4.681971E-3,7.9182094E-1,-4.549242E-2,8.792847E-2,1.0411936E0,3.6370483E-1,-2.1173248E-2,-9.6285485E-2,5.802215E-2,-6.014433E-2,3.745084E-2,-3.6495276E-2,1.116366E-1,3.5211056E-2,1.29667E-1,4.950023E-2,4.1281646E-3,9.294109E-2,7.05174E-2,1.22377805E-1,8.518119E-2,-3.4519143E-2],"categories":[],"categories_nodes":[],"categories_segments":[],"categories_sizes":[],"default_left":[0,0,0,0,0,0,0,0,0,0,0,0,0,0,0,0,0,0,0,0,0,0,0,0,0,0,0,0,0,0,0,0,0,0,0,0,0,0,0,0,0,0,0,0,0,0,0,0,0,0,0,0,0,0,0,0,0,0,0],"id":26,"left_children":[1,3,5,7,9,11,13,-1,15,17,19,21,23,25,27,-1,-1,29,31,-1,33,-1,-1,-1,35,37,-1,39,41,43,45,-1,47,49,-1,-1,51,-1,53,-1,-1,55,57,-1,-1,-1,-1,-1,-1,-1,-1,-1,-1,-1,-1,-1,-1,-1,-1],"loss_changes":[4.2965157E1,1.732119E1,9.954755E0,1.3105774E-1,1.5270992E1,1.6604872E1,1.0994759E0,0E0,3.2931266E0,2.378521E0,9.194498E-1,1.631052E0,1.9496794E0,2.9358685E0,7.476444E-1,0E0,0E0,8.7039185E-1,1.1417964E0,0E0,1.0557556E-1,0E0,0E0,0E0,1.656847E-1,7.5442076E-1,0E0,2.060773E0,8.842678E-1,1.160819E0,4.9269547E0,0E0,9.9245024E-1,9.17258E-1,0E0,0E0,2.2571278E-1,0E0,6.771364E-1,0E0,0E0,4.4726372E-1,1.9147774E0,0E0,0E0,0E0,0E0,0E0,0E0,0E0,0E0,0E0,0E0,0E0,0E0,0E0,0E0,0E0,0E0],"parents":[2147483647,0,0,1,1,2,2,3,3,4,4,5,5,6,6,8,8,9,9,10,10,11,11,12,12,13,13,14,14,17,17,18,18,20,20,24,24,25,25,27,27,28,28,29,29,30,30,32,32,33,33,36,36,38,38,41,41,42,42],"right_children":[2,4,6,8,10,12,14,-1,16,18,20,22,24,26,28,-1,-1,30,32,-1,34,-1,-1,-1,36,38,-1,40,42,44,46,-1,48,50,-1,-1,52,-1,54,-1,-1,56,58,-1,-1,-1,-1,-1,-1,-1,-1,-1,-1,-1,-1,-1,-1,-1,-1],"split_conditions":[9.70884E-1,9.92686E-1,8.372432E-1,1.2035059E0,1.4891243E0,1.3601991E0,-8.548243E-1,-9.9685006E-2,1.5960356E0,1.2035059E0,1.0103091E0,1.2614379E0,1.1135511E0,-9.7173524E-1,1.0283912E0,-9.0335675E-2,4.325357E-2,-3.4787962E-1,-1.1198763E0,-4.1553355E-3,1.636767E-1,-9.3012825E-2,6.274325E-3,-8.202291E-3,-1.038392E0,-1.5350016E0,-6.1084658E-2,5.5737543E-1,2.059631E0,-1.3454987E0,-2.3603567E-1,-6.259104E-2,6.667381E-1,-1.0136138E0,1.1186633E-1,3.3697903E-2,1.918225E0,-4.681971E-3,-1.0121601E0,-4.549242E-2,8.792847E-2,1.3461919E0,4.350347E-1,-2.1173248E-2,-9.6285485E-2,5.802215E-2,-6.014433E-2,3.745084E-2,-3.6495276E-2,1.116366E-1,3.5211056E-2,1.29667E-1,4.950023E-2,4.1281646E-3,9.294109E-2,7.05174E-2,1.22377805E-1,8.518119E-2,-3.4519143E-2],"split_indices":[1,0,0,5,2,2,5,0,2,5,0,5,1,5,0,0,0,1,1,0,1,0,0,0,5,5,0,2,0,1,1,0,2,5,0,0,2,0,2,0,0,1,5,0,0,0,0,0,0,0,0,0,0,0,0,0,0,0,0],"split_type":[0,0,0,0,0,0,0,0,0,0,0,0,0,0,0,0,0,0,0,0,0,0,0,0,0,0,0,0,0,0,0,0,0,0,0,0,0,0,0,0,0,0,0,0,0,0,0,0,0,0,0,0,0,0,0,0,0,0,0],"sum_hessian":[1.7598175E2,1.1813395E2,5.7847797E1,5.9236584E1,5.8897366E1,2.2508331E1,3.5339466E1,4.9373844E1,9.8627405E0,4.5749695E1,1.3147673E1,1.2465241E1,1.0043089E1,8.536186E0,2.680328E1,8.195092E0,1.6676483E0,3.7292656E1,8.45704E0,1.3021307E0,1.1845542E1,1.0679084E1,1.7861582E0,1.6898518E0,8.353237E0,7.0705624E0,1.4656235E0,2.7631638E0,2.4040117E1,1.2581612E1,2.4711042E1,1.1836454E0,7.2733946E0,9.016224E0,2.8293183E0,1.4142511E0,6.938986E0,1.1418595E0,5.928703E0,1.3688871E0,1.3942766E0,2.0356133E1,3.683984E0,3.4308605E0,9.150751E0,3.366238E0,2.1344805E1,5.6708264E0,1.602568E0,1.9316093E0,7.0846143E0,4.596959E0,2.342027E0,1.1198835E0,4.8088193E0,8.878584E0,1.1477549E1,2.062356E0,1.621628E0],"tree_param":{"num_deleted":"0","num_feature":"6","num_nodes":"59","size_leaf_vector":"1"}},{"base_weights":[-2.2329836E-1,-5.4386777E-1,4.0595934E-1,-7.779883E-1,8.294952E-2,2.8106388E-1,8.420963E-1,-1.01036705E-1,6.9785435E-3,4.1500077E-1,-8.479015E-2,7.7713853E-1,1.7563519E-1,4.5220262E-1,1.1656611E0,5.214039E-1,-1.4942904E-1,-2.287778E-2,8.9488924E-1,-4.763125E-1,4.1670927E-1,-8.022635E-3,9.562484E-1,-1.3293516E-2,5.7715666E-1,-3.0766154E-2,7.2482246E-1,1.3140817E-1,4.8136365E-2,6.435655E-2,1.649363E-2,2.8804937E-1,-4.3090013E-1,-6.1561156E-2,2.2082031E-1,1.2417418E-1,1.4030951E-2,-6.2075425E-2,-7.050804E-1,1.06264785E-1,1.0788915E-1,3.0431075E-2,1.0540228E-1,-5.501067E-1,9.5077775E-2,-8.749037E-3,6.547447E-1,2.6179814E-1,1.178389E-1,-1.6368931E-2,6.839414E-2,-6.890166E-2,-1.0319699E-2,4.881267E-2,-3.2196917E-2,-4.0720966E-2,5.9668254E-2,1.2170505E-2,-9.1843866E-2,3.834972E-2,-2.9998247E-2,-7.9572104E-2,1.8754188E-2,5.0328203E-2,7.9420686E-4,7.365554E-2,-4.925656E-3,9.605967E-2,-3.385107E-2],"categories":[],"categories_nodes":[],"categories_segments":[],"categories_sizes":[],"default_left":[0,0,0,0,0,0,0,0,0,0,0,0,0,0,0,0,0,0,0,0,0,0,0,0,0,0,0,0,0,0,0,0,0,0,0,0,0,0,0,0,0,0,0,0,0,0,0,0,0,0,0,0,0,0,0,0,0,0,0,0,0,0,0,0,0,0,0,0,0],"id":27,"left_children":[1,3,5,7,9,11,13,-1,15,17,19,21,23,25,27,29,31,33,35,37,39,-1,41,43,45,-1,47,-1,-1,-1,-1,49,51,-1,53,-1,-1,55,57,59,-1,-1,-1,61,63,-1,65,67,-1,-1,-1,-1,-1,-1,-1,-1,-1,-1,-1,-1,-1,-1,-1,-1,-1,-1,-1,-1,-1],"loss_changes":[3.5123547E1,1.6949093E1,2.9754534E0,1.5304733E1,